{
  "mode": "char",
  "startWord": "[#start#]",
  "words": [
    "[#start#]",
    "a",
    " ",
    "d",
    "o",
    "g",
    "↓",
    "l",
    "i",
    "t",
    "e",
    "b",
    "c",
    "k"
  ],
  "wordVecMap": {
    "[#start#]": [
      1,
      0,
      0,
      0,
      0,
      0,
      0,
      0,
      0,
      0,
      0,
      0,
      0,
      0
    ],
    "a": [
      0,
      1,
      0,
      0,
      0,
      0,
      0,
      0,
      0,
      0,
      0,
      0,
      0,
      0
    ],
    " ": [
      0,
      0,
      1,
      0,
      0,
      0,
      0,
      0,
      0,
      0,
      0,
      0,
      0,
      0
    ],
    "d": [
      0,
      0,
      0,
      1,
      0,
      0,
      0,
      0,
      0,
      0,
      0,
      0,
      0,
      0
    ],
    "o": [
      0,
      0,
      0,
      0,
      1,
      0,
      0,
      0,
      0,
      0,
      0,
      0,
      0,
      0
    ],
    "g": [
      0,
      0,
      0,
      0,
      0,
      1,
      0,
      0,
      0,
      0,
      0,
      0,
      0,
      0
    ],
    "↓": [
      0,
      0,
      0,
      0,
      0,
      0,
      1,
      0,
      0,
      0,
      0,
      0,
      0,
      0
    ],
    "l": [
      0,
      0,
      0,
      0,
      0,
      0,
      0,
      1,
      0,
      0,
      0,
      0,
      0,
      0
    ],
    "i": [
      0,
      0,
      0,
      0,
      0,
      0,
      0,
      0,
      1,
      0,
      0,
      0,
      0,
      0
    ],
    "t": [
      0,
      0,
      0,
      0,
      0,
      0,
      0,
      0,
      0,
      1,
      0,
      0,
      0,
      0
    ],
    "e": [
      0,
      0,
      0,
      0,
      0,
      0,
      0,
      0,
      0,
      0,
      1,
      0,
      0,
      0
    ],
    "b": [
      0,
      0,
      0,
      0,
      0,
      0,
      0,
      0,
      0,
      0,
      0,
      1,
      0,
      0
    ],
    "c": [
      0,
      0,
      0,
      0,
      0,
      0,
      0,
      0,
      0,
      0,
      0,
      0,
      1,
      0
    ],
    "k": [
      0,
      0,
      0,
      0,
      0,
      0,
      0,
      0,
      0,
      0,
      0,
      0,
      0,
      1
    ]
  },
  "vecWordMap": {
    "1,0,0,0,0,0,0,0,0,0,0,0,0,0": "[#start#]",
    "0,1,0,0,0,0,0,0,0,0,0,0,0,0": "a",
    "0,0,1,0,0,0,0,0,0,0,0,0,0,0": " ",
    "0,0,0,1,0,0,0,0,0,0,0,0,0,0": "d",
    "0,0,0,0,1,0,0,0,0,0,0,0,0,0": "o",
    "0,0,0,0,0,1,0,0,0,0,0,0,0,0": "g",
    "0,0,0,0,0,0,1,0,0,0,0,0,0,0": "↓",
    "0,0,0,0,0,0,0,1,0,0,0,0,0,0": "l",
    "0,0,0,0,0,0,0,0,1,0,0,0,0,0": "i",
    "0,0,0,0,0,0,0,0,0,1,0,0,0,0": "t",
    "0,0,0,0,0,0,0,0,0,0,1,0,0,0": "e",
    "0,0,0,0,0,0,0,0,0,0,0,1,0,0": "b",
    "0,0,0,0,0,0,0,0,0,0,0,0,1,0": "c",
    "0,0,0,0,0,0,0,0,0,0,0,0,0,1": "k"
  },
  "size": {
    "in": 14,
    "hidden": 14,
    "out": 14
  },
  "layers": {
    "Wix0": {
      "n": 14,
      "d": 14,
      "w": {
        "0": 2.5232044314770468,
        "1": 2.6246602933076053,
        "2": -0.03147048643713074,
        "3": -1.6962250798151541,
        "4": -3.5218753796745443,
        "5": -4.113506951140418,
        "6": -3.1869539453214366,
        "7": 1.1057540362049025,
        "8": 2.0131169371309174,
        "9": -2.5841556598455013,
        "10": 3.1804111706706424,
        "11": 3.9515402904681385,
        "12": 2.7372622576223153,
        "13": 1.6367664127126562,
        "14": 1.7095302853685115,
        "15": -0.9924504669015011,
        "16": -1.3830484464969814,
        "17": -4.06056906566982,
        "18": 0.6068478482601134,
        "19": -1.1977724119434656,
        "20": 0.3594006440012889,
        "21": -1.7837693840149016,
        "22": 1.190317534224578,
        "23": -3.325338906479651,
        "24": 3.826663858811728,
        "25": 6.424979629472522,
        "26": 1.3907329921351699,
        "27": 0.20713341559146925,
        "28": 2.3596308232717393,
        "29": -0.11356499841678318,
        "30": 0.4959751777000675,
        "31": 2.417937646139009,
        "32": -2.783849331625902,
        "33": 0.004216928278579377,
        "34": -0.3373343422319125,
        "35": -0.6632330262408315,
        "36": -1.3303441435367787,
        "37": -3.318875588614515,
        "38": 1.2625158143437496,
        "39": -0.5781083122765653,
        "40": 3.08902539452606,
        "41": -2.8661842044037886,
        "42": 1.0265730261711525,
        "43": 2.5949721064586173,
        "44": -1.2450259830326285,
        "45": -6.05439187008131,
        "46": 1.3386173289052903,
        "47": -2.023872266612556,
        "48": -0.7353152384738832,
        "49": 1.7916117305321366,
        "50": 2.9445501533052254,
        "51": -0.08507034831607568,
        "52": 1.0409154397186067,
        "53": -0.41700809880455963,
        "54": -3.361573288844017,
        "55": -3.9831411723015067,
        "56": 0.2067068371073365,
        "57": 3.6295107339148425,
        "58": 1.4421576589183405,
        "59": 0.35036731436816393,
        "60": 0.4236248083669854,
        "61": 1.570252195086699,
        "62": -0.7384500775712232,
        "63": 0.591313630625945,
        "64": 1.4703121656767222,
        "65": -1.7506296789185856,
        "66": 3.1543682366459516,
        "67": 2.843902322414879,
        "68": -2.7631708718928203,
        "69": 2.9396508856166665,
        "70": 3.9787270574476774,
        "71": -3.22448073483729,
        "72": -4.577283789519335,
        "73": 0.6345836897841073,
        "74": 3.302585979060181,
        "75": -1.1850207404440198,
        "76": 2.328380191511861,
        "77": 6.132868256907076,
        "78": -1.3388223881696892,
        "79": 1.056300420577359,
        "80": 0.515483805355851,
        "81": 1.861176176848626,
        "82": 0.3135692990184241,
        "83": 1.2454967216443715,
        "84": 2.711595843544627,
        "85": -1.6769091979409607,
        "86": 1.2780619903739827,
        "87": 2.838118748299592,
        "88": 0.36333191463041625,
        "89": -1.5573371243144039,
        "90": 0.17953433789145118,
        "91": -0.07828213340874707,
        "92": -0.931410833347788,
        "93": -1.8170738043582777,
        "94": 0.5160496076186677,
        "95": 1.5634014350625038,
        "96": -0.6061758787651544,
        "97": 3.490303186789458,
        "98": 3.123204062674108,
        "99": 2.3516909144287306,
        "100": 3.5148947744212253,
        "101": 1.8181483734150485,
        "102": -3.921689260329593,
        "103": -2.0319733649752716,
        "104": 1.1730518256007219,
        "105": -2.839854775331166,
        "106": -0.6719722957965762,
        "107": 1.5763464945765393,
        "108": -1.8021524533978228,
        "109": 2.0018479351325906,
        "110": -2.849098842695192,
        "111": 0.8638032473769169,
        "112": -1.6673807699323515,
        "113": 1.778796025156951,
        "114": -0.4163440722827151,
        "115": 3.185103648654335,
        "116": -2.8226849209353935,
        "117": 1.6565550150815636,
        "118": 0.17505684225228774,
        "119": 3.5642941759467575,
        "120": 2.820904864698299,
        "121": -0.9806000278076483,
        "122": -1.5392153288719197,
        "123": -2.186622567007721,
        "124": 4.266970354600941,
        "125": 2.47077740271883,
        "126": -1.4104019509584405,
        "127": -0.4332557084947879,
        "128": -3.1112861102103198,
        "129": -3.1639244979533028,
        "130": -0.6001953070830952,
        "131": -0.21853759878550483,
        "132": -2.1571117201812235,
        "133": -4.207683867356495,
        "134": 2.0454413538997147,
        "135": 2.663303099270939,
        "136": -3.586110079849269,
        "137": 3.6072055794828826,
        "138": -0.9405613302476084,
        "139": -1.0859635032397168,
        "140": 1.044608425491628,
        "141": 1.7030579567881323,
        "142": -1.7915861078067996,
        "143": 3.6536390334017526,
        "144": 2.4704968562745524,
        "145": 2.523096300202982,
        "146": 0.3060255680871171,
        "147": -0.47245999610899897,
        "148": 1.8355553153103972,
        "149": -0.8433760714897147,
        "150": 0.6984490512021593,
        "151": -4.705291489977145,
        "152": 2.4579803394475928,
        "153": 3.9220271895190435,
        "154": 4.648362700583568,
        "155": 1.3200881100796478,
        "156": -1.7995842306210703,
        "157": 0.7342659512237819,
        "158": 0.5946437272287765,
        "159": 2.246056198530555,
        "160": -1.4207425357725045,
        "161": -0.06469600176300022,
        "162": -0.2227224565304946,
        "163": 1.72894728263608,
        "164": -2.9868175858496815,
        "165": -3.6487973376113474,
        "166": 0.2138737556839504,
        "167": 4.627184909848368,
        "168": 1.5967025989162462,
        "169": -1.3507160907997766,
        "170": -2.5822232203245,
        "171": 3.432105428309086,
        "172": 2.540249350339188,
        "173": -0.18451800230219179,
        "174": -0.7173630545947096,
        "175": 1.2150429664166151,
        "176": 2.5095474551667607,
        "177": 4.433907667313002,
        "178": 2.58644328966523,
        "179": 1.3030278774269963,
        "180": -2.286913011264948,
        "181": 2.10284151041408,
        "182": 2.3172754395466315,
        "183": -2.752008412895115,
        "184": -1.3203517455139355,
        "185": 1.6109709387834454,
        "186": 3.3698513159591186,
        "187": 3.8909595780434336,
        "188": 0.05124859807899257,
        "189": -1.3410897154941606,
        "190": -0.13172147842593296,
        "191": 0.33318089036582715,
        "192": 3.3703722585817504,
        "193": 0.23061574778621882,
        "194": 0.5049301122364951,
        "195": -0.8993063093672141
      }
    },
    "Wih0": {
      "n": 14,
      "d": 14,
      "w": {
        "0": -2.941009707922448,
        "1": 1.0355292770694906,
        "2": 2.643114829623724,
        "3": -2.0498400753614985,
        "4": -1.6508036571130398,
        "5": 2.651163781552116,
        "6": 5.9759204537954655,
        "7": -0.5264711911926864,
        "8": -0.06186894275655663,
        "9": -0.0835464209992936,
        "10": -1.12563557233511,
        "11": -1.9292859920118195,
        "12": 2.2581637350385475,
        "13": 5.4610805679057615,
        "14": -1.4783774731520773,
        "15": 0.41899229241921204,
        "16": 3.9260475721322066,
        "17": -0.23542367453544227,
        "18": -0.5752319088117551,
        "19": -0.47771136639702194,
        "20": -1.731763047668437,
        "21": 3.8251382989443994,
        "22": -4.90803108232284,
        "23": -2.764873674537959,
        "24": -0.4688938234372375,
        "25": -5.894633491753753,
        "26": 6.072441190702054,
        "27": -5.855312492641225,
        "28": 2.8059099584586105,
        "29": -0.7672626920890417,
        "30": -1.543196947722877,
        "31": 2.675631159481234,
        "32": 0.7327794202722899,
        "33": -0.6193448194793919,
        "34": 0.2010000450497407,
        "35": -3.8570917153040765,
        "36": -8.123969088364662,
        "37": -0.5372033134957731,
        "38": 4.232021363065618,
        "39": 2.366844424018052,
        "40": 0.5099892833153455,
        "41": -1.0757044804634635,
        "42": -2.131900597439537,
        "43": -2.939527878383436,
        "44": 3.565607400780579,
        "45": -0.661790557003871,
        "46": 0.006818838568844604,
        "47": 2.1780936553356827,
        "48": 0.4589422973146439,
        "49": 3.196619147882119,
        "50": 0.40965994012451246,
        "51": 2.4224580976001775,
        "52": 1.128074002379929,
        "53": -3.580559875408062,
        "54": -0.41745227262038404,
        "55": -0.5503384555600952,
        "56": 0.6591912555545405,
        "57": -2.5709206316557442,
        "58": 5.599819875854946,
        "59": 1.962809040766474,
        "60": 2.6570104773091883,
        "61": 2.096301590097586,
        "62": -5.106326549934933,
        "63": 2.8435630835935433,
        "64": 0.04448723682089489,
        "65": -2.064398475057933,
        "66": 1.9230342666781997,
        "67": -0.1663823024007114,
        "68": 3.051350804167966,
        "69": -1.8511976986925882,
        "70": -0.9902745053948192,
        "71": -0.15543742253089898,
        "72": -3.111334561114377,
        "73": 4.006115954037034,
        "74": -3.94317833058488,
        "75": -2.254690818206935,
        "76": -1.885906396382122,
        "77": 1.9239514465883192,
        "78": -0.03417262522772102,
        "79": 1.2650461898165948,
        "80": -2.846728182185344,
        "81": -0.2820287026388054,
        "82": 3.267367174125345,
        "83": -1.023697903383683,
        "84": 3.8470869405813675,
        "85": -2.1310462958355814,
        "86": 0.4941047918137998,
        "87": -1.6830147714472354,
        "88": -0.44130423667856705,
        "89": -0.35023550747942056,
        "90": 1.488314704900737,
        "91": -4.729191941704396,
        "92": -3.310930050991258,
        "93": 0.4317395588136796,
        "94": 2.3500528664406097,
        "95": -1.4367252860872262,
        "96": -1.800119699133716,
        "97": 2.7898641743101136,
        "98": 0.3011181639545382,
        "99": 0.6646758239519941,
        "100": -0.6460728711015863,
        "101": -0.2583508794524695,
        "102": -0.6763397505504603,
        "103": -1.675591383212553,
        "104": 5.337945338159575,
        "105": -1.9279965725892982,
        "106": -2.9245022179657516,
        "107": -3.2518286053144534,
        "108": -1.3853416543829573,
        "109": -7.016196256976105,
        "110": -2.0326979331516304,
        "111": -0.2708606925026966,
        "112": 2.2699674834838945,
        "113": -1.1355255384363596,
        "114": 0.5351153854609254,
        "115": 4.76599516944898,
        "116": 0.3945288694437824,
        "117": -2.685574501504216,
        "118": 1.0009668755371384,
        "119": -6.010942989279369,
        "120": -2.4440198304379277,
        "121": -3.7175624914044216,
        "122": 0.10916089722071393,
        "123": 1.2482251751637676,
        "124": 0.6985530570432575,
        "125": 5.274658824455155,
        "126": -1.7600886501225597,
        "127": -1.8324566707448593,
        "128": 1.658229266205466,
        "129": 2.3060838558244114,
        "130": -0.17540025554828706,
        "131": -2.6852183313591222,
        "132": 1.551248560044542,
        "133": 4.407201180990671,
        "134": 2.876052517946185,
        "135": -1.26838295331673,
        "136": 2.1793996273639458,
        "137": -2.6990988023426885,
        "138": -0.9709085206011372,
        "139": 3.991951443691433,
        "140": 0.7781352936008772,
        "141": -1.4201760323186026,
        "142": 3.477970108304712,
        "143": -1.6754501828656272,
        "144": -4.205475469228173,
        "145": 0.6931937530703283,
        "146": 0.048291929536532774,
        "147": -0.2161897011871709,
        "148": 1.0634588456500045,
        "149": -3.2531217699169956,
        "150": -1.6829739766174594,
        "151": 3.580715159353913,
        "152": 2.1059603979909807,
        "153": 2.827259877890808,
        "154": -2.3263921050583,
        "155": 4.940235394827517,
        "156": -3.9567204360855603,
        "157": 1.1968423879339247,
        "158": -1.4342892920497288,
        "159": -2.570887810498968,
        "160": -1.4946530322916558,
        "161": 0.37413211596995233,
        "162": 2.7921703088974184,
        "163": 6.734689379441967,
        "164": -1.4105645036941783,
        "165": 4.573143719238282,
        "166": 0.9422939359785041,
        "167": 2.5730050799833277,
        "168": 0.16847509233021263,
        "169": 0.43711148972353914,
        "170": -0.8162801963692834,
        "171": 3.7567246494596787,
        "172": -3.6284503649799014,
        "173": 0.7987311138112165,
        "174": 1.3668008839691743,
        "175": -0.08096860122098809,
        "176": 2.578385252721224,
        "177": -1.2979400439105153,
        "178": 4.156902031799048,
        "179": -2.772447429822754,
        "180": -3.7372401961105752,
        "181": 2.116765903954466,
        "182": 0.35022456724828016,
        "183": 3.814889474034425,
        "184": 0.9090656274116153,
        "185": 3.0382425393515136,
        "186": 0.9750922764110472,
        "187": 1.7714569728676723,
        "188": -0.17036666368108533,
        "189": 2.7650740535821003,
        "190": 0.3117105834982749,
        "191": -1.8706876088882305,
        "192": -0.6583603370455406,
        "193": 2.050449978338067,
        "194": -0.5650091957121561,
        "195": -0.7610534029827514
      }
    },
    "bi0": {
      "n": 14,
      "d": 1,
      "w": {
        "0": -2.296898336719765,
        "1": 1.9770663191849518,
        "2": 0.8597491218542435,
        "3": 2.7191777854551775,
        "4": 3.16228751431221,
        "5": 3.305072517853772,
        "6": 3.332541425932647,
        "7": 2.205647364351043,
        "8": 0.7187971942773602,
        "9": -2.0312573381306627,
        "10": 1.9588679579274377,
        "11": -0.3869193382592383,
        "12": 3.560788829362763,
        "13": 4.434857699185588
      }
    },
    "Wfx0": {
      "n": 14,
      "d": 14,
      "w": {
        "0": 0.021682384815308205,
        "1": 0.8637625043877065,
        "2": -1.304436599353401,
        "3": -1.9481272186576362,
        "4": -0.5824714642825054,
        "5": -1.671755148478966,
        "6": -3.9651058547579647,
        "7": -1.2405249191624719,
        "8": 0.011148602361051807,
        "9": 3.3168331515820486,
        "10": -1.278187191663888,
        "11": -3.305516138575307,
        "12": 2.249440151954623,
        "13": 0.4389831753940682,
        "14": 0.0030020470678423124,
        "15": 0.7776166962072786,
        "16": -2.0690998021025395,
        "17": 0.6016471149854778,
        "18": -2.2545095923593377,
        "19": -3.217547587924379,
        "20": -1.4106990524530625,
        "21": -0.22637579535987118,
        "22": -3.0699000172514364,
        "23": 0.4456568690003479,
        "24": -3.5081521399717746,
        "25": -0.9094349191830408,
        "26": -2.0294269008460506,
        "27": -0.9524668279806701,
        "28": 0.05385132232534375,
        "29": -3.2640400678889105,
        "30": 1.5438569443737162,
        "31": -1.8715395524554665,
        "32": 1.2669761625981628,
        "33": 0.13936579387275394,
        "34": 0.6903804427027269,
        "35": 1.3634620922824623,
        "36": 0.0419648545484102,
        "37": -2.3283799440112047,
        "38": 0.10143154546250793,
        "39": -1.7426654303573816,
        "40": -2.1933363247103146,
        "41": -2.129435043492949,
        "42": -0.07784408693496607,
        "43": 0.4136419112807732,
        "44": 0.24876538577311896,
        "45": 0.9166487914734107,
        "46": 0.40588203441278403,
        "47": 0.3794819780474024,
        "48": -0.7594051039058058,
        "49": 0.13114539182666513,
        "50": 2.0048947879956662,
        "51": 0.5083312136138656,
        "52": 0.23976379994751654,
        "53": -3.5940967014601233,
        "54": -1.2817205866192516,
        "55": -2.1604313972515286,
        "56": -0.055654234163450306,
        "57": -3.7353623862741587,
        "58": -0.908623580537069,
        "59": -0.3933878617468168,
        "60": -0.2557901077241851,
        "61": -3.7167689559943624,
        "62": -2.2771853661491352,
        "63": -2.1246389757892254,
        "64": -0.18973569976420612,
        "65": -1.8574827649238614,
        "66": 1.1215988530160443,
        "67": 5.468477005008405,
        "68": -1.25347742469899,
        "69": -1.218133307824139,
        "70": -0.022060412181104685,
        "71": 5.0170351475926855,
        "72": 2.1520525357773566,
        "73": -3.0457148091867605,
        "74": 0.29450064646601526,
        "75": 0.33728920412404134,
        "76": -2.1656293760665113,
        "77": -2.11521760799171,
        "78": -2.1499416335505432,
        "79": 1.7117926212698775,
        "80": -1.4410853337307434,
        "81": 1.1081898556506309,
        "82": 2.455338824541715,
        "83": 4.017145489937508,
        "84": -0.012560321718142744,
        "85": 1.3623753951235948,
        "86": -0.5043780386152408,
        "87": -1.8007030887774276,
        "88": -2.4751254500069733,
        "89": -0.25007203306245773,
        "90": -1.7019658863496883,
        "91": -1.276999249130713,
        "92": -1.8588038619510596,
        "93": -3.5869881466238724,
        "94": -1.8086140374371416,
        "95": -1.6058099380289461,
        "96": -0.6414518669322967,
        "97": 1.9084292468946213,
        "98": -0.019233407345193892,
        "99": 3.382921949262934,
        "100": -4.04736495767541,
        "101": 2.6436418809177282,
        "102": 1.4317238446162472,
        "103": -0.7000445112521373,
        "104": -2.445495181521346,
        "105": 1.1372978358930956,
        "106": 0.050637976875678115,
        "107": -5.189925514524008,
        "108": -1.3264370891339037,
        "109": -1.2303182016548095,
        "110": 0.6169394190465101,
        "111": -0.12848182354438137,
        "112": 0.0012031403916110458,
        "113": 0.2044462430488263,
        "114": 3.314405522627753,
        "115": -5.306735086348823,
        "116": 0.33879560243828605,
        "117": -1.6221802379933843,
        "118": 0.5036704252542757,
        "119": -4.820248465479478,
        "120": 2.4284513972440736,
        "121": -1.181584470393253,
        "122": 1.5981101997216471,
        "123": 0.9383121592176482,
        "124": -4.443744619582899,
        "125": -2.4267923699553906,
        "126": 0.03154146878664246,
        "127": -1.846579523436258,
        "128": -0.7944890506604216,
        "129": -1.7301535674968365,
        "130": 0.01443135487695068,
        "131": 0.693677056535333,
        "132": -2.948438244994389,
        "133": -2.054618241731197,
        "134": -2.430026398328485,
        "135": 1.675134949600701,
        "136": -2.3324762689862997,
        "137": -0.23973928816458484,
        "138": 0.23602465398061476,
        "139": -0.4275747802483711,
        "140": -0.022884960836599362,
        "141": -2.6363780285710883,
        "142": -1.3631247891705287,
        "143": 3.744183505119039,
        "144": -3.865891045528245,
        "145": 3.0368123529439903,
        "146": -0.8937008013646732,
        "147": 1.791993396381452,
        "148": -3.344599620311415,
        "149": -0.6948730174370207,
        "150": -1.2330721148939883,
        "151": -4.869250854508569,
        "152": 2.0759395603195583,
        "153": -3.118848157799556,
        "154": 0.02295925936444575,
        "155": -1.8119870163677803,
        "156": 1.7626743750691107,
        "157": 1.6268962751752345,
        "158": 2.3178599416759984,
        "159": -3.1982008614918955,
        "160": -2.297491886181944,
        "161": 0.024202708992461353,
        "162": 0.052861894104671625,
        "163": 0.13142583758325088,
        "164": -0.9850492795223623,
        "165": -2.1501926316473554,
        "166": -1.8725840094276833,
        "167": -2.0919724715814825,
        "168": 0.06328574453088809,
        "169": 2.975501896880536,
        "170": -0.8275454857434728,
        "171": -3.9187275823277536,
        "172": 3.3577351630144547,
        "173": 0.4095951615567177,
        "174": 2.654063959240107,
        "175": -1.2578476009506183,
        "176": -4.447679969038634,
        "177": 1.8483004130061162,
        "178": -0.8154944132249605,
        "179": -0.9870149381974063,
        "180": -1.9385218085364593,
        "181": -0.15513391669334328,
        "182": -0.07839039467194107,
        "183": -1.039083191874085,
        "184": -1.4558578441248657,
        "185": -1.1221723613697576,
        "186": 0.7747038454865267,
        "187": 5.775141400212728,
        "188": -3.059607590238158,
        "189": 1.7429779011511575,
        "190": -0.3397591782289521,
        "191": -0.0655801807474857,
        "192": -1.878478187927616,
        "193": 3.2166932340638237,
        "194": -0.47642794707524727,
        "195": -1.733319516588149
      }
    },
    "Wfh0": {
      "n": 14,
      "d": 14,
      "w": {
        "0": -0.005581388908749707,
        "1": 0.6146084716907905,
        "2": 1.1635385759974366,
        "3": -0.040467726776185986,
        "4": 4.379511843904761,
        "5": -1.377984032339369,
        "6": -1.5871421467297877,
        "7": -1.860489673046883,
        "8": 0.5163993237068447,
        "9": 2.2511761307353693,
        "10": -3.370281478474206,
        "11": 3.817486298843235,
        "12": -2.66368013859958,
        "13": -0.5094896323244984,
        "14": -5.236380169224559,
        "15": 0.9255588386439153,
        "16": -1.980021578499251,
        "17": 0.897071611963216,
        "18": -1.3844982293061026,
        "19": -0.8401261416037813,
        "20": 2.7557147007757656,
        "21": 2.1904396180271233,
        "22": 2.8106130365205835,
        "23": -0.6209132220915556,
        "24": -2.4796832218153466,
        "25": -4.065573480577095,
        "26": -4.312832859353371,
        "27": 0.5227363879157847,
        "28": 2.650520440042159,
        "29": -1.6180328549093808,
        "30": -2.023052043497987,
        "31": -2.0032246737069164,
        "32": -0.26877257769800983,
        "33": -2.480514088497822,
        "34": 0.3532252384664164,
        "35": 0.15517649875208891,
        "36": -1.9293307039584977,
        "37": 3.242210825118406,
        "38": 0.7895836371075045,
        "39": -2.5554675565220006,
        "40": 2.582924197183455,
        "41": -2.7418173902926806,
        "42": -2.3011901172836646,
        "43": 1.3941551952247357,
        "44": 1.7844393759420587,
        "45": -1.945529309560298,
        "46": -1.0574018995177763,
        "47": -2.7153152450378575,
        "48": 1.1341935028987762,
        "49": 4.272271366679874,
        "50": 1.507061919156687,
        "51": -0.9940707535695181,
        "52": -3.2944316706688546,
        "53": -6.52681533302034,
        "54": 0.632570397463712,
        "55": 0.5239479951891617,
        "56": -1.1595083476904418,
        "57": 2.2604025099867058,
        "58": -1.3822084124235376,
        "59": -0.22309309115865944,
        "60": 1.0798268232474317,
        "61": 3.728115428350182,
        "62": 0.36171668029661913,
        "63": -1.254781547715429,
        "64": 6.404141681559925,
        "65": -2.9063926133474447,
        "66": 1.5486903130081555,
        "67": -2.5454063682963675,
        "68": 2.6324350300605914,
        "69": 1.1532016110487793,
        "70": 1.0270938075578897,
        "71": 0.8734055662699819,
        "72": -2.4560505738975924,
        "73": -0.16483633672373782,
        "74": -3.822068339001164,
        "75": 1.163316898435699,
        "76": 0.11133512103793267,
        "77": -3.3027553088765904,
        "78": -5.002909271684873,
        "79": -1.231050422942051,
        "80": -0.027961142172390485,
        "81": -1.2904343640391591,
        "82": -0.7115785062933981,
        "83": 3.5609271893189325,
        "84": 2.386307378933877,
        "85": 1.6923801937978937,
        "86": -1.5591352585382792,
        "87": -1.2164049153945735,
        "88": -1.8856779861727708,
        "89": 0.24849415053700685,
        "90": -1.5019640068982918,
        "91": -3.7797922331107494,
        "92": -4.916366226616498,
        "93": -0.5857170891655001,
        "94": 1.269870550711254,
        "95": 0.05946799284893062,
        "96": -1.5233572331167398,
        "97": -0.8069246050278093,
        "98": 0.8717135870423187,
        "99": 0.81121051374406,
        "100": 0.8367536065444809,
        "101": -2.683216016530942,
        "102": -2.1094132919588398,
        "103": -0.5568639462801072,
        "104": 4.425936755433452,
        "105": -3.9958133134140574,
        "106": -2.483505611611189,
        "107": -3.388189673969317,
        "108": 1.0063407958049004,
        "109": 3.226634346837386,
        "110": 0.6056741062396973,
        "111": 4.116669356537368,
        "112": -0.4457229547933801,
        "113": -0.41251062015968865,
        "114": 1.0918816322709788,
        "115": -0.762630973461516,
        "116": 1.2287488738142307,
        "117": 1.4932742759550934,
        "118": 2.19495616043628,
        "119": -4.363262200352349,
        "120": 0.5495396314116998,
        "121": -3.1499013907875244,
        "122": 2.045187512069602,
        "123": -2.239198150461813,
        "124": -1.908975483244785,
        "125": -3.35029612049126,
        "126": -0.5137609953597096,
        "127": -7.021169048480478,
        "128": 1.2842624891614258,
        "129": -0.43467040431256837,
        "130": 1.2142708390445167,
        "131": -5.674720480350618,
        "132": 0.7148748215720833,
        "133": -0.34070070125110896,
        "134": 1.4338008216715554,
        "135": 0.876397288488021,
        "136": -1.3796589850254484,
        "137": 1.4420438585666566,
        "138": -0.060637095530400364,
        "139": 0.05852400473862046,
        "140": 0.8861181819725749,
        "141": 1.7423748686544802,
        "142": -0.8792698558407138,
        "143": -0.9047706052391836,
        "144": 1.9110563823457642,
        "145": 0.3773727285556076,
        "146": 2.429734968796328,
        "147": -3.5735778517351102,
        "148": -5.571516935922105,
        "149": -0.5497361850333835,
        "150": 2.1464206777029986,
        "151": 0.7313702144469245,
        "152": -1.92615275143079,
        "153": -2.820336729869411,
        "154": -2.3231907796363402,
        "155": -3.7109228849218963,
        "156": 0.052670641991987455,
        "157": -0.8355095249382158,
        "158": -0.22836851930862737,
        "159": 0.31864408021875995,
        "160": -7.613104767248524,
        "161": 3.709766532106375,
        "162": -2.9799609859746767,
        "163": 5.693374862994581,
        "164": 6.203904461549575,
        "165": 0.6352088465409862,
        "166": -2.5924520493776324,
        "167": 2.0185827896281863,
        "168": 0.09963961106380653,
        "169": -1.5892320812571148,
        "170": 3.3790412803587726,
        "171": 3.950563653508992,
        "172": -0.87671047417437,
        "173": -3.9126635546629633,
        "174": -3.4131651235953457,
        "175": 1.0741570911661265,
        "176": 6.729990302907998,
        "177": -3.647180257722002,
        "178": -3.1540201590754813,
        "179": 0.7895478281925321,
        "180": 0.5652118719849006,
        "181": -2.858371287693765,
        "182": -2.2427255547296006,
        "183": 1.4648357321708931,
        "184": 3.14942933591124,
        "185": 1.8722183347013897,
        "186": 0.5047150269210523,
        "187": -3.953176863122169,
        "188": 2.314363259399082,
        "189": 3.369706745551079,
        "190": -0.24509454968189154,
        "191": -0.25586431544096366,
        "192": 0.21192533463651198,
        "193": 3.828694099828178,
        "194": 3.016445129670112,
        "195": 1.9235751003228283
      }
    },
    "bf0": {
      "n": 14,
      "d": 1,
      "w": {
        "0": -1.6437431185120517,
        "1": -2.306625522387233,
        "2": 3.3761269638363616,
        "3": 3.0402151893465676,
        "4": -2.884444877018724,
        "5": -3.571136430746367,
        "6": -0.5545117266237279,
        "7": -1.2885732687080949,
        "8": -1.2688493521181927,
        "9": -1.3822871447769354,
        "10": -0.3928162431514026,
        "11": 1.4647405276942012,
        "12": -2.276911753554515,
        "13": -2.1400804752083697
      }
    },
    "Wox0": {
      "n": 14,
      "d": 14,
      "w": {
        "0": 0.8095116747747149,
        "1": -0.26872401044895583,
        "2": 1.6337827761290984,
        "3": 0.39451702341126166,
        "4": -1.8341144167277106,
        "5": -3.6648771593764238,
        "6": -4.832040608410953,
        "7": -3.677132241320254,
        "8": 0.9462331817044523,
        "9": 4.051718086243627,
        "10": 3.793595569744885,
        "11": 2.325157346559128,
        "12": 2.440814381415512,
        "13": 1.499633652145293,
        "14": 0.17155854138629584,
        "15": 3.4501187811214917,
        "16": -2.9369919314208683,
        "17": -0.2597624774505928,
        "18": 2.1051436505238765,
        "19": 0.5431708205181768,
        "20": -2.152767323014965,
        "21": -3.3238491818516054,
        "22": 0.4234779303269791,
        "23": -1.2397133264315026,
        "24": 6.035845070004017,
        "25": 5.610384846111312,
        "26": 0.2219808984454594,
        "27": 0.22713428516767262,
        "28": 4.13569283117727,
        "29": -1.125737863121981,
        "30": 0.004550583563425081,
        "31": -3.342401901942446,
        "32": -4.406530716082937,
        "33": -1.0840250877589397,
        "34": 3.2934639849805083,
        "35": 4.483749043299486,
        "36": -0.5906297685175153,
        "37": -2.016141882871683,
        "38": 4.263752207943943,
        "39": -2.1191523432055344,
        "40": 2.084225921129503,
        "41": -0.37098287860898466,
        "42": 2.5404236771355313,
        "43": -0.757774245435884,
        "44": -0.7978861271877031,
        "45": -1.9524062997900626,
        "46": -0.20678010885559633,
        "47": 0.7248448442711188,
        "48": -3.106173983022027,
        "49": -1.1847814768830305,
        "50": 1.4063824264153868,
        "51": -0.5782694106770678,
        "52": 1.1676162088409168,
        "53": -0.25044316837048614,
        "54": 0.18023801889123545,
        "55": -1.3135898372242591,
        "56": 1.8035974276865223,
        "57": -0.888517604837872,
        "58": -4.211729896785651,
        "59": -0.8308403835408469,
        "60": -2.416946176466778,
        "61": -2.872968557055183,
        "62": -2.55499600940282,
        "63": 0.7807171784409298,
        "64": -1.5383301765987358,
        "65": -1.4437773544331123,
        "66": 3.978230323023162,
        "67": -3.7949639080878423,
        "68": -1.2256931255464607,
        "69": 2.996511001052962,
        "70": 2.2772908889361627,
        "71": 1.3027124118349402,
        "72": 4.602274128057286,
        "73": -3.0676085479672013,
        "74": 4.912736523473657,
        "75": -2.953466366559126,
        "76": -2.2951511181726993,
        "77": 4.839548968906476,
        "78": -2.00678319895939,
        "79": 1.3716326839941617,
        "80": -0.682458172268969,
        "81": 6.018307361252432,
        "82": 1.5935525248961615,
        "83": -3.9454354803386256,
        "84": 0.9362126403603583,
        "85": -0.7562643922272617,
        "86": -2.0152636903400225,
        "87": 4.3778872032239,
        "88": -0.9021165415054212,
        "89": -1.1292569254767464,
        "90": 2.8020815865233217,
        "91": 0.059193507123394884,
        "92": 0.042855503452586055,
        "93": -0.5775881752511413,
        "94": 2.2650602556747006,
        "95": 4.124812504878987,
        "96": -3.3429846588997,
        "97": 5.463389977504883,
        "98": 3.038245750548216,
        "99": 5.509098603390214,
        "100": 0.5289676621646437,
        "101": 5.364690075077459,
        "102": -0.6749612101092769,
        "103": 1.8266859448448667,
        "104": -0.34486277037120766,
        "105": -1.1945089677188276,
        "106": -0.1451302124294631,
        "107": 0.35235130073857596,
        "108": -2.4131816298798787,
        "109": -4.530657388673757,
        "110": 1.5725216651889724,
        "111": 1.8386093836499289,
        "112": -0.6974454399723361,
        "113": 1.190144368406178,
        "114": -0.8290791740124132,
        "115": 2.971503751239357,
        "116": -0.43650468890318367,
        "117": -0.4485906027150157,
        "118": 1.8596767513587489,
        "119": 2.1603308874361065,
        "120": 4.445615422164042,
        "121": -2.0933454407502894,
        "122": -0.16095528383853464,
        "123": -1.8400032208875652,
        "124": 3.599637510170057,
        "125": 0.5268100176623784,
        "126": -1.4900426242907905,
        "127": -0.24469049881230598,
        "128": -4.332530567395846,
        "129": -2.8906505288364497,
        "130": -3.5375520749480645,
        "131": 2.7205924426657004,
        "132": -0.68053981971563,
        "133": -2.2103542622736985,
        "134": 0.10753636980843206,
        "135": 3.725833843543053,
        "136": -1.018803939391653,
        "137": 5.0031213718150696,
        "138": -1.4422574783729132,
        "139": 0.6869520551345715,
        "140": 1.862272232750151,
        "141": 1.4099176038416912,
        "142": 0.3864549447305351,
        "143": 4.68189775957909,
        "144": 2.3330511184929583,
        "145": 6.388745027581198,
        "146": -1.7700892661671852,
        "147": -1.1585966584613696,
        "148": 1.7027404098145296,
        "149": -1.7127981571887303,
        "150": 0.5174362956371801,
        "151": -5.324912085387214,
        "152": 3.4117264290820506,
        "153": 3.6502061569734736,
        "154": 3.8210976506895777,
        "155": 1.3107067282124003,
        "156": -1.7196991342555632,
        "157": 2.4472985318121787,
        "158": 2.1536399279355436,
        "159": 1.6101184689822894,
        "160": 1.6065887849214033,
        "161": -0.599309794502238,
        "162": 1.7291900527907482,
        "163": 0.4314353309395175,
        "164": -0.6092906674911651,
        "165": -2.2605047334275277,
        "166": 0.6843718074352243,
        "167": -2.6713306429931287,
        "168": 3.013342498120446,
        "169": -2.907774428334391,
        "170": 1.3589905907811972,
        "171": 3.2762908734037466,
        "172": 2.9537041265247774,
        "173": -0.030889821054851774,
        "174": 2.927906132355414,
        "175": 3.1534437243004527,
        "176": 3.120990404755642,
        "177": 5.677384052439477,
        "178": 3.456094155944027,
        "179": 2.461456571918149,
        "180": -0.9644996557513765,
        "181": 1.7592555285210967,
        "182": 3.798968757484124,
        "183": -4.029069065774657,
        "184": -4.7864688170707135,
        "185": -1.8303576280542382,
        "186": 1.9951773322266007,
        "187": 7.15188286958903,
        "188": 1.4019613738319725,
        "189": 1.4819724593274284,
        "190": 0.30687588088293194,
        "191": 2.921430821172109,
        "192": 8.226073400715023,
        "193": -1.4323331594242663,
        "194": 3.8377421817230517,
        "195": -0.44105494830066144
      }
    },
    "Woh0": {
      "n": 14,
      "d": 14,
      "w": {
        "0": 0.9793027790320764,
        "1": 0.03343535674618403,
        "2": 1.0952735815006869,
        "3": -0.7618653832471936,
        "4": -0.7365740199376307,
        "5": -0.06607341068355585,
        "6": 0.4486490043298484,
        "7": -3.145161862702363,
        "8": 2.837789522333808,
        "9": -4.576701001398188,
        "10": 1.436139088707734,
        "11": -2.631243489484862,
        "12": -2.1851936604439826,
        "13": -0.8328538890438331,
        "14": -2.272339197839261,
        "15": 4.30635616836846,
        "16": -0.2863784989021222,
        "17": 2.0494816161346012,
        "18": -1.9924512951543045,
        "19": 3.4992837042774556,
        "20": 2.901343393397715,
        "21": 0.5438721855775179,
        "22": -2.136970143066893,
        "23": -4.475354734242996,
        "24": 5.2166969325569506,
        "25": 0.717395386501235,
        "26": 1.1015639950318756,
        "27": 3.636806885002647,
        "28": 1.8598187114653346,
        "29": 4.559697520266184,
        "30": -3.110618882535511,
        "31": 1.69991450528709,
        "32": -1.968054400107432,
        "33": 0.5467638761239232,
        "34": -1.0833292307145732,
        "35": -3.4500537112978096,
        "36": 0.13248513916465793,
        "37": 0.3808411651081769,
        "38": -0.12361479296595679,
        "39": 1.5379103175146698,
        "40": -2.6069524928558385,
        "41": 1.2065122363442928,
        "42": 0.7693927847383999,
        "43": -0.46194977311298185,
        "44": -2.3043983494778497,
        "45": 2.523110213833424,
        "46": 0.9185178007576712,
        "47": -0.20302535452013443,
        "48": 0.41002303483199437,
        "49": -0.16759649200169102,
        "50": 0.15138517540855984,
        "51": 3.068548059579743,
        "52": 4.628163386425712,
        "53": -4.2485614671522836,
        "54": 2.684400253532764,
        "55": 3.648217063706554,
        "56": -4.825762048371586,
        "57": 3.9783326102034122,
        "58": -2.24768793383084,
        "59": -0.35324559806714323,
        "60": 2.2483607245090713,
        "61": 1.2351052781991672,
        "62": 0.503285245159039,
        "63": 3.426674279510728,
        "64": -3.8605091948251613,
        "65": 0.38615228394776113,
        "66": -0.9556007199936851,
        "67": 0.5231397005490432,
        "68": 1.8021351168472899,
        "69": 3.4742156698589786,
        "70": -4.276484567261042,
        "71": 1.7621890825345123,
        "72": 1.961643388650582,
        "73": 0.7974159575383313,
        "74": -4.196223595350763,
        "75": -2.6558589161330746,
        "76": -2.730877950698593,
        "77": -1.6340007903413123,
        "78": -0.6276663372386622,
        "79": 3.267648652207868,
        "80": 3.2544806348583104,
        "81": -2.097034158632064,
        "82": -1.4131013914761703,
        "83": 4.232840694952279,
        "84": -1.295112802505251,
        "85": -1.2046067215576188,
        "86": -0.8884336451442565,
        "87": 0.8535194342372128,
        "88": -1.0027055043149176,
        "89": -0.05016622328390269,
        "90": 2.0534502339062195,
        "91": -3.3340892134084767,
        "92": -3.8619803541713686,
        "93": 2.146779330130487,
        "94": 4.6275968287855616,
        "95": -2.9034484002670746,
        "96": -2.015251423939207,
        "97": 3.392000905882429,
        "98": -1.2165176535968207,
        "99": 3.64080720996917,
        "100": -0.21576923856460212,
        "101": -1.45692404158545,
        "102": -3.809694422322989,
        "103": -2.3861527260143602,
        "104": 1.8874616334194898,
        "105": 1.0062167248785705,
        "106": 2.1138598273997355,
        "107": 0.4029968387079809,
        "108": -2.958690131807851,
        "109": -1.149692227725401,
        "110": -3.6879931883457955,
        "111": 2.682740110579187,
        "112": 0.48425380529398,
        "113": 3.4692134682216667,
        "114": 5.254159121741167,
        "115": 1.0555662652222675,
        "116": 0.7607214813931051,
        "117": 1.5872728368530171,
        "118": 3.7960256170957902,
        "119": -1.9614165660914764,
        "120": -6.393755774921607,
        "121": -6.117385263695785,
        "122": 3.6832232861626917,
        "123": -0.37508550979150246,
        "124": 1.8677170405607706,
        "125": 2.827545024102103,
        "126": 2.313643725120272,
        "127": -5.059663489788689,
        "128": -1.6647601504280218,
        "129": 3.584751402413154,
        "130": 2.564845930824503,
        "131": -4.53223925316957,
        "132": 2.653011587994657,
        "133": 0.6099012351909863,
        "134": 4.193729401169315,
        "135": 0.5628969526633301,
        "136": -2.8632114429397055,
        "137": 3.487319155448096,
        "138": -2.0752475243275956,
        "139": -0.007898920054947411,
        "140": 5.2378902505640355,
        "141": 1.0373464671734154,
        "142": 2.803811686753387,
        "143": 0.32635661229708157,
        "144": -1.2597264450143724,
        "145": 0.4436856348364098,
        "146": -1.4843264855518532,
        "147": -1.9000401403446245,
        "148": -0.931385347575869,
        "149": -3.0995332106832247,
        "150": 3.3852515507225123,
        "151": 2.5314424202176933,
        "152": 3.829268029386239,
        "153": 0.5449923846758405,
        "154": -8.190079511356265,
        "155": 4.132131058332092,
        "156": -3.9426369627103237,
        "157": 2.341254984314768,
        "158": -5.076340001739151,
        "159": 0.13201021704763938,
        "160": -2.9423853709680503,
        "161": 3.47942684793758,
        "162": 0.6642347113796419,
        "163": 2.3018051934688026,
        "164": 2.377787427373645,
        "165": 3.0871696184190385,
        "166": 2.1415454994202516,
        "167": 2.0054197976199877,
        "168": 1.4326739987703003,
        "169": -0.6412791753789149,
        "170": -0.6608753866332943,
        "171": 6.273556454221168,
        "172": 0.22186499136785165,
        "173": 1.6575140429301691,
        "174": 0.6226578649308814,
        "175": -3.153442676271008,
        "176": 3.34350285292196,
        "177": -3.302724862213635,
        "178": 4.111412750822151,
        "179": -1.267602144197727,
        "180": 0.7854135533731907,
        "181": 3.1715109506076367,
        "182": -2.843247310145741,
        "183": 3.188659730962893,
        "184": -0.8819468005770978,
        "185": 3.6448713477355406,
        "186": 2.284177714085998,
        "187": 3.6396838424962783,
        "188": -0.5206277618956938,
        "189": -0.5080070392884668,
        "190": -4.403501743892307,
        "191": -1.6348497095474173,
        "192": 1.7714931188697949,
        "193": 5.922385472670969,
        "194": 3.03031995166633,
        "195": -1.088891172208
      }
    },
    "bo0": {
      "n": 14,
      "d": 1,
      "w": {
        "0": 1.4371377886605008,
        "1": -1.5096477833498527,
        "2": -6.463993992714746,
        "3": -0.41981166979602913,
        "4": -2.314948033665236,
        "5": -0.15772155370572533,
        "6": 1.2675896676332579,
        "7": -1.0952708165686502,
        "8": 0.5244795248749525,
        "9": -1.907122779439563,
        "10": 3.16968335635194,
        "11": 0.8543093776340154,
        "12": -0.8254691540242591,
        "13": -1.639682543715956
      }
    },
    "Wcx0": {
      "n": 14,
      "d": 14,
      "w": {
        "0": -3.413881821777373,
        "1": 4.4964278510827045,
        "2": -0.6348229043478185,
        "3": 0.6057564506156228,
        "4": 0.755260993779455,
        "5": 0.580932954533627,
        "6": 0.7189982391660957,
        "7": -1.9011655132271825,
        "8": -2.933726866333688,
        "9": -2.4155321861351045,
        "10": 2.8111569404133063,
        "11": -3.7609722061184225,
        "12": 3.128007212908595,
        "13": 3.2804033854571277,
        "14": -1.9712111157258874,
        "15": -2.837297167295554,
        "16": 0.2788820282102421,
        "17": 3.3054258428762537,
        "18": -1.248603073252395,
        "19": 0.2558411522438075,
        "20": 0.8164146777609325,
        "21": 2.350044407150756,
        "22": -2.16299975457608,
        "23": 0.5313877384314026,
        "24": -3.1984978599642826,
        "25": 7.5951021513299315,
        "26": -2.213711242624835,
        "27": -1.022054852106919,
        "28": 1.4679982981147188,
        "29": 0.09333543779942895,
        "30": -3.607384931082093,
        "31": 2.772060848785139,
        "32": 0.4627552995618418,
        "33": 1.6908175873512057,
        "34": 1.6268936655558752,
        "35": 1.6353438974917893,
        "36": -0.5253791455060034,
        "37": -0.791134337762128,
        "38": 1.3155985093313745,
        "39": -5.387904447737251,
        "40": -2.1383879104991577,
        "41": -0.28422266958837006,
        "42": -3.0979910049041997,
        "43": -4.441642870647551,
        "44": 1.8108888490029018,
        "45": 0.8163008166910859,
        "46": 2.7346471749038925,
        "47": -2.3149708739360153,
        "48": -0.38229681311188346,
        "49": 3.7037577226535565,
        "50": 3.7593918969066444,
        "51": -4.122147963506765,
        "52": -4.09610106901815,
        "53": -3.773462153173116,
        "54": 0.4289312993233776,
        "55": -0.32418278802303807,
        "56": -1.8737051517213519,
        "57": 4.540718831367414,
        "58": -0.637779659707754,
        "59": -1.0314496159290703,
        "60": 0.6844104991546958,
        "61": -1.2417593403789713,
        "62": -0.010996192921515591,
        "63": 3.9753202808386376,
        "64": 1.9426953182566966,
        "65": -0.0023414073017441863,
        "66": 3.9274801060373212,
        "67": -2.607566832896394,
        "68": 1.3482657574498798,
        "69": 1.3104295394705687,
        "70": 4.959366011832838,
        "71": 0.5401766322830427,
        "72": -0.4841586999168617,
        "73": -2.396811221447257,
        "74": -3.786866851310511,
        "75": 2.7244446854511657,
        "76": -2.318030794281608,
        "77": 5.463600819634409,
        "78": -0.4459190125939072,
        "79": -1.9167696060492898,
        "80": -0.5757329511334447,
        "81": -3.321430097677831,
        "82": 3.4369877009035794,
        "83": 3.0570391107511097,
        "84": -2.94827888759043,
        "85": 0.4761424685335365,
        "86": 1.9120612809544584,
        "87": -4.05327305975301,
        "88": 1.2830457473324652,
        "89": -0.3388594525224435,
        "90": 2.6521422235777714,
        "91": 3.6470811407403616,
        "92": 2.006951739195481,
        "93": 1.0185762405044998,
        "94": -2.832479682131466,
        "95": 4.648066088377302,
        "96": -0.5289485118049195,
        "97": -2.866141774229972,
        "98": -2.804457362792421,
        "99": -3.696958786237504,
        "100": 1.041356750940656,
        "101": 3.8859227244772705,
        "102": 1.6147836298528087,
        "103": -0.6375683732337072,
        "104": -1.0753509895194497,
        "105": -0.3838776142953525,
        "106": 1.871574788441754,
        "107": 3.26925038557109,
        "108": -0.0022202420716439172,
        "109": -3.791654464534021,
        "110": 0.042449649156496704,
        "111": -0.50524296382808,
        "112": -1.694633630009541,
        "113": -4.741351870675605,
        "114": -3.190592200617879,
        "115": 4.722283854179095,
        "116": 0.5488303316364255,
        "117": -1.3823010320370044,
        "118": -0.759051357926291,
        "119": 3.6397796220783003,
        "120": 3.7884890765876627,
        "121": -1.0183598362816477,
        "122": -0.8736814884665579,
        "123": -1.8592597698680935,
        "124": 3.175272761693579,
        "125": -2.8105535643908435,
        "126": 0.516920457963386,
        "127": -0.10440391261035008,
        "128": -2.3084680333049903,
        "129": 0.819913720106094,
        "130": -3.084261979098984,
        "131": -2.5946600215023814,
        "132": -1.2336024785866284,
        "133": -0.7277844047469565,
        "134": 2.397943246610654,
        "135": 2.514777127148173,
        "136": -0.3836710869849908,
        "137": -2.549192358268862,
        "138": 1.9908924439622049,
        "139": 2.2073975998405877,
        "140": 1.0538346801519147,
        "141": 0.22268729112217597,
        "142": 1.732771869972103,
        "143": 1.2937808848016257,
        "144": -4.7895810393355305,
        "145": -2.865734924763464,
        "146": 2.052761108792579,
        "147": 3.1181802812586916,
        "148": -1.1765179125761784,
        "149": -2.4975585512588947,
        "150": -0.3593670008679909,
        "151": -1.8108816330903594,
        "152": -4.612488062668247,
        "153": 3.1983956840275733,
        "154": -3.874447285413035,
        "155": 3.135537531247097,
        "156": 1.0652761651289,
        "157": 1.7365158122843196,
        "158": 2.309624791009755,
        "159": -2.4636689214275314,
        "160": 0.20961230386783972,
        "161": 1.5254337620863256,
        "162": 1.063572965504799,
        "163": -2.225283296500548,
        "164": 0.2032790011181272,
        "165": -0.5715258968969926,
        "166": -0.30567922564800687,
        "167": 3.9129147939219218,
        "168": -2.7786799645110425,
        "169": 0.6550837862444681,
        "170": 0.8756051651115075,
        "171": 4.649428223497505,
        "172": 2.9399916636650882,
        "173": 1.3508730085946656,
        "174": 2.500852402450548,
        "175": 1.6744619303310424,
        "176": -3.936676731167164,
        "177": 0.6892374471989673,
        "178": -2.165366238136922,
        "179": 3.26068978927819,
        "180": -0.11626760966564058,
        "181": -1.4652930815695333,
        "182": 3.320788555065992,
        "183": -0.8414745267171133,
        "184": 1.3314005610275228,
        "185": -1.865304321419847,
        "186": -3.981021627357516,
        "187": -4.602872424570673,
        "188": 0.8760332803798264,
        "189": 1.892924268915527,
        "190": -0.8931085388756137,
        "191": -2.427708037056566,
        "192": -4.359405135632755,
        "193": 3.253835097871873,
        "194": 1.7249886852864522,
        "195": -0.13796842322232813
      }
    },
    "Wch0": {
      "n": 14,
      "d": 14,
      "w": {
        "0": 0.7064900226458338,
        "1": 1.5431016105335982,
        "2": -0.27655130537952105,
        "3": -1.997769762828943,
        "4": -2.164071610569274,
        "5": 2.456390825194593,
        "6": -4.1254314889868,
        "7": 1.5998142071470354,
        "8": -0.7773588847197824,
        "9": 4.217550040396837,
        "10": -1.2476573201372578,
        "11": -0.9918007478264458,
        "12": -2.50654939338522,
        "13": 1.6382215597022267,
        "14": -3.5961997231947596,
        "15": -1.4728354258021719,
        "16": -0.9704010421935892,
        "17": -1.35196076093375,
        "18": 3.4864220640397576,
        "19": -4.371008417665478,
        "20": 0.457936946182612,
        "21": -1.837212426753427,
        "22": -0.7966053263290321,
        "23": -4.066679771196584,
        "24": 1.139989575917576,
        "25": -1.4272353019406052,
        "26": -2.557296420741609,
        "27": -3.8173028197136643,
        "28": 1.1713027468421382,
        "29": 1.406949626141329,
        "30": -2.314812107172975,
        "31": 2.127888333424358,
        "32": -0.6860793724787614,
        "33": -0.03718967549695543,
        "34": 1.0501363450616152,
        "35": 2.2944336048422267,
        "36": 1.741226330226751,
        "37": -4.815475658256289,
        "38": -1.1729916056857606,
        "39": -0.5294917263708718,
        "40": 4.094017994531781,
        "41": 1.7374405186212822,
        "42": 1.706813703679862,
        "43": 0.4309020160923991,
        "44": 2.7099284614598784,
        "45": -1.2886968608036664,
        "46": 2.7218048932472,
        "47": -0.07355381004623068,
        "48": -0.7672909350986423,
        "49": 1.3397101928645767,
        "50": 0.24156997574519667,
        "51": -1.0910018318310934,
        "52": 3.3204612796990483,
        "53": 0.370984791594021,
        "54": -0.12370798829259139,
        "55": -1.3768248233201872,
        "56": -1.0906355688679217,
        "57": 0.729643713511041,
        "58": 1.2601026040896828,
        "59": -0.12745431191541998,
        "60": 0.3731276755225142,
        "61": -1.2650692032881876,
        "62": 1.953925827231075,
        "63": 0.9242555310240279,
        "64": 3.576748571242943,
        "65": 0.6563678440686593,
        "66": 0.1702452975409116,
        "67": -3.453785461663095,
        "68": 4.459757343950282,
        "69": 4.94775500736944,
        "70": 0.3396267709056717,
        "71": -0.48828412217484096,
        "72": -1.9769338670511774,
        "73": -1.373192203508912,
        "74": -1.5250607569906844,
        "75": -2.2468929412038454,
        "76": 3.042001556556174,
        "77": 0.6405820057802689,
        "78": 1.1089824519844012,
        "79": 0.9218834567392808,
        "80": -1.0460977080797416,
        "81": -0.15571615632606728,
        "82": 2.533253408445353,
        "83": 0.6143930097919679,
        "84": 4.762577643503812,
        "85": 1.0612592360705277,
        "86": 3.1076968097690103,
        "87": 1.3293229085971907,
        "88": -2.1205889209741176,
        "89": -4.680313902964904,
        "90": -1.2978570150086945,
        "91": 0.6039472617279145,
        "92": -2.0257714695427156,
        "93": -1.0531220631547087,
        "94": 1.6985291579035162,
        "95": 0.3009387389815221,
        "96": 3.569316478960171,
        "97": -2.123705008662661,
        "98": 1.8340361395594407,
        "99": 0.1989336462432612,
        "100": 1.1137352948101789,
        "101": 1.033464560383548,
        "102": 2.7716760477456424,
        "103": 1.0467498517168659,
        "104": -2.5146777477543285,
        "105": -1.6207685140618215,
        "106": 0.8332945324716461,
        "107": 4.613332291184675,
        "108": 2.7879828611241613,
        "109": 0.21747384251929286,
        "110": -2.671705892217311,
        "111": 0.0011041677552885432,
        "112": 1.4615776245124381,
        "113": 0.7049108479106896,
        "114": 0.5260701022889429,
        "115": -2.5888044921081805,
        "116": -1.198830417737198,
        "117": 2.511881590961747,
        "118": 1.9154597304119485,
        "119": 2.8610475326034646,
        "120": -0.7253061298870838,
        "121": -0.8596140903836278,
        "122": 0.1638330638426453,
        "123": 3.0804848835339023,
        "124": -1.3323271893437802,
        "125": 3.102639699442681,
        "126": -2.257277681001441,
        "127": -2.524694064881505,
        "128": 0.1426553106170046,
        "129": 0.3987382271009995,
        "130": 0.837030657897878,
        "131": 2.478662051057904,
        "132": 2.6986768646218446,
        "133": -0.4914546909312547,
        "134": 1.3402284008753693,
        "135": 0.6429494895675046,
        "136": -0.3071738547676744,
        "137": 0.43217471703439697,
        "138": -1.6457016246220022,
        "139": -0.8712764851862067,
        "140": -0.14029258920640048,
        "141": -4.146964691333761,
        "142": 1.0219049229371195,
        "143": 3.2595453029782866,
        "144": 0.7706193690765686,
        "145": -3.8333093040716824,
        "146": 0.3776226224385204,
        "147": -0.5612408794415332,
        "148": -5.110917273809727,
        "149": -1.0198167401159912,
        "150": -0.9758803643860814,
        "151": -4.405455650603149,
        "152": -3.227786974668167,
        "153": 1.1329943023967972,
        "154": 3.9239142413714814,
        "155": 1.5524921433839396,
        "156": 0.5452615424592615,
        "157": 1.876235852616408,
        "158": -3.517289819494526,
        "159": 4.542299279716002,
        "160": -1.710959299070633,
        "161": -1.2707518687971089,
        "162": 1.3876104826357254,
        "163": -2.1819242530516494,
        "164": 4.017400097725878,
        "165": -0.11897981694277204,
        "166": 0.6484904416141426,
        "167": 2.590052627121093,
        "168": 1.0937979812689906,
        "169": -2.778444066568608,
        "170": -1.9370502258259552,
        "171": -1.2603791229792705,
        "172": -4.618684644668243,
        "173": -1.655175462012576,
        "174": -3.319303466983195,
        "175": 1.8460959349314343,
        "176": -2.5680541501766054,
        "177": -0.7821284526093609,
        "178": 0.48775229935153896,
        "179": -2.2746084547731527,
        "180": -1.6650307321925506,
        "181": -1.919104682444068,
        "182": -0.35636907267562157,
        "183": 1.728596154117511,
        "184": 3.145403265503992,
        "185": -1.8153538642016813,
        "186": -1.7573713275425713,
        "187": -2.728929000000966,
        "188": 0.5829892540080677,
        "189": -2.094774462066891,
        "190": -2.9259711963391277,
        "191": -1.3291775884133972,
        "192": 0.8299624845710977,
        "193": -0.5939775427281719,
        "194": -1.3025809350874633,
        "195": -1.4913647553044858
      }
    },
    "bc0": {
      "n": 14,
      "d": 1,
      "w": {
        "0": 0.14635761856941804,
        "1": -2.694770960134551,
        "2": 3.4932027543551047,
        "3": 1.4897400335943927,
        "4": -2.077641547661835,
        "5": -1.7187470683234827,
        "6": -1.1646013570273992,
        "7": -1.939222822822206,
        "8": -0.08418424202645808,
        "9": -1.0082057891553386,
        "10": 2.6108410679091403,
        "11": -0.19626779926774607,
        "12": -2.2410356100449085,
        "13": 1.4184036333420287
      }
    },
    "Whd": {
      "n": 14,
      "d": 14,
      "w": {
        "0": -0.8813153903261252,
        "1": -1.864173475221173,
        "2": -1.3430661851599444,
        "3": 0.06700700604854636,
        "4": 1.5873531237545715,
        "5": -0.13840482214123784,
        "6": 1.6299274161938366,
        "7": 1.3502460871323858,
        "8": 0.7183479780051245,
        "9": 0.13034572758130522,
        "10": 0.4564062017936333,
        "11": 1.0043989696045474,
        "12": 0.8399166722824606,
        "13": -0.888127697065605,
        "14": -11.445924084703755,
        "15": 1.8096049659761373,
        "16": 2.8978275581031965,
        "17": -6.461838236459987,
        "18": -3.3242365967220526,
        "19": 0.3044527148207536,
        "20": 3.792446638800623,
        "21": -3.446094587138399,
        "22": 1.9877345711327628,
        "23": -3.8879436457908887,
        "24": 0.039785521923164924,
        "25": -0.06096377469213016,
        "26": 1.8651708245722052,
        "27": 3.3799846311653194,
        "28": 3.863081195821925,
        "29": -8.762392033652095,
        "30": -0.20792556705170223,
        "31": -6.8575627631993745,
        "32": 8.807188193830367,
        "33": -5.338996820980436,
        "34": -6.918827185622565,
        "35": -2.969252732837006,
        "36": -3.6950671218386577,
        "37": 1.9829929791605556,
        "38": 5.1354830109541805,
        "39": 1.7762490802160071,
        "40": -0.905114335967651,
        "41": -3.6605999621903287,
        "42": 0.9771794371439935,
        "43": -0.27481764893200095,
        "44": -7.1806213711427285,
        "45": 2.40593774501275,
        "46": 4.514082500016017,
        "47": 7.076544089332963,
        "48": -0.5889737107939683,
        "49": 20.688347591301,
        "50": -4.346077977615605,
        "51": 1.679135386277925,
        "52": 1.934832780527144,
        "53": 6.451370355917493,
        "54": -2.0697744566645246,
        "55": 0.2530890975749973,
        "56": 0.9421498349889518,
        "57": 2.3725093200044665,
        "58": 3.2700171469065,
        "59": 0.3584524185927885,
        "60": -0.38450748593180856,
        "61": -3.5207895275227674,
        "62": -9.060649207864026,
        "63": 11.706898717318381,
        "64": 9.27815070963252,
        "65": -0.4098515253484837,
        "66": 6.688325122447427,
        "67": 5.134333127880902,
        "68": 8.114123000275423,
        "69": -6.302743205897871,
        "70": -1.7489570091712583,
        "71": -3.3002024662105227,
        "72": -2.2324609054199347,
        "73": 2.8889739793044935,
        "74": 5.4321164270773545,
        "75": -9.814531197180704,
        "76": 2.6766221811508375,
        "77": 3.604792337376008,
        "78": 1.9636869853527765,
        "79": 1.129688795999974,
        "80": -5.439691813976324,
        "81": 4.035975519811516,
        "82": 10.719246578526633,
        "83": -4.889087919057547,
        "84": -0.8245943643097354,
        "85": -0.702666505610724,
        "86": -2.288170523558428,
        "87": 0.700565002966197,
        "88": 0.06382777128206922,
        "89": 3.489500006466182,
        "90": 0.49735095328985357,
        "91": 1.6599291184367593,
        "92": -0.8732734515554715,
        "93": -8.889757412614536,
        "94": -3.224807325390781,
        "95": -5.656236088706012,
        "96": 1.0591114453101702,
        "97": -15.530361367771958,
        "98": -8.898312446445118,
        "99": 7.555211525254463,
        "100": 0.9576213152342362,
        "101": -9.330454741747575,
        "102": 0.6235147962866355,
        "103": -10.985280917962317,
        "104": 6.789566871749778,
        "105": 8.851259097822298,
        "106": -6.991595120822742,
        "107": -1.9348604731852268,
        "108": 4.428599555457012,
        "109": -4.546483433529593,
        "110": 10.08115183935,
        "111": 4.833239646151295,
        "112": -3.0076844138518184,
        "113": -3.926519991540072,
        "114": 5.072265347049744,
        "115": -0.2320970773845148,
        "116": 5.788053867793802,
        "117": 7.163001319586106,
        "118": 8.92286352915387,
        "119": 2.470960284082285,
        "120": 8.59402194353077,
        "121": 1.9784286448014297,
        "122": 6.910975924382788,
        "123": 8.045183912955505,
        "124": 4.666635578845667,
        "125": 2.637823931443843,
        "126": -12.313325547636348,
        "127": -2.8738752141912527,
        "128": -0.7150141756462652,
        "129": -2.495195169645723,
        "130": 2.391384802437049,
        "131": -1.916045649168856,
        "132": 6.111188875083144,
        "133": -0.6085134939384478,
        "134": 6.388460375899354,
        "135": 9.887084335910826,
        "136": -3.7408030021915737,
        "137": 1.2961407255948039,
        "138": -7.044830811031562,
        "139": -3.0860753848962985,
        "140": -2.0726477692000134,
        "141": -0.1707685758706451,
        "142": -1.7992397650021867,
        "143": -2.3892070644219623,
        "144": 10.730470895869757,
        "145": 8.880464950631595,
        "146": 5.081608885282779,
        "147": 4.367222296992311,
        "148": -0.8205894803081385,
        "149": 2.9175000127018804,
        "150": -1.4789678089600604,
        "151": -7.460744595318346,
        "152": 2.1719046394855703,
        "153": 0.6412489172282321,
        "154": 0.35952623444604237,
        "155": 4.029340819402549,
        "156": 2.138119438190441,
        "157": 1.2352572472929926,
        "158": -2.558315758143796,
        "159": -2.8289593443653023,
        "160": 3.6094538237093716,
        "161": 2.2462739433133,
        "162": 0.7421324163039514,
        "163": -1.379531827885218,
        "164": -0.3764694782801038,
        "165": -0.11593351678109565,
        "166": -1.2976157671447885,
        "167": 1.0525611874222662,
        "168": 0.9120460064883471,
        "169": 6.8296387858906815,
        "170": -1.3232964154140374,
        "171": -5.776967857258047,
        "172": 4.183103853737519,
        "173": 4.31654546845748,
        "174": -0.2331697869772776,
        "175": -0.7164636777667838,
        "176": -3.0068675540997907,
        "177": 1.917042292787057,
        "178": -4.227418829610042,
        "179": 5.688862188427304,
        "180": -1.6246666813244937,
        "181": -2.7151137209536453,
        "182": 4.12887920288505,
        "183": -2.4088438502659644,
        "184": -6.390529652997447,
        "185": -1.964314572808437,
        "186": 1.5822390555638035,
        "187": 0.11899441652125975,
        "188": 1.9978438433967634,
        "189": 0.2725464377630708,
        "190": 5.989655060382313,
        "191": -0.34898039750687376,
        "192": -6.4709707496112925,
        "193": 0.5992944888015304,
        "194": 2.80035192192384,
        "195": 5.029406296298779
      }
    },
    "bd": {
      "n": 14,
      "d": 1,
      "w": {
        "0": -8.294004120630209,
        "1": 1.4142111173199838,
        "2": -9.461616729765193,
        "3": 1.44247469988898,
        "4": -7.623662839711728,
        "5": -7.518765561920092,
        "6": -7.695174610317523,
        "7": -4.30522990266606,
        "8": -6.930062979935695,
        "9": -7.385163302240701,
        "10": -6.2896643503400815,
        "11": 1.6748997655908204,
        "12": -9.273712268791725,
        "13": -10.371251901346211
      }
    }
  }
}