{
  "mode": "char",
  "startWord": "[#start#]",
  "words": [
    "[#start#]",
    "a",
    "↓",
    "b",
    "+",
    "(",
    ")"
  ],
  "wordVecMap": {
    "[#start#]": [
      1,
      0,
      0,
      0,
      0,
      0,
      0
    ],
    "a": [
      0,
      1,
      0,
      0,
      0,
      0,
      0
    ],
    "↓": [
      0,
      0,
      1,
      0,
      0,
      0,
      0
    ],
    "b": [
      0,
      0,
      0,
      1,
      0,
      0,
      0
    ],
    "+": [
      0,
      0,
      0,
      0,
      1,
      0,
      0
    ],
    "(": [
      0,
      0,
      0,
      0,
      0,
      1,
      0
    ],
    ")": [
      0,
      0,
      0,
      0,
      0,
      0,
      1
    ]
  },
  "vecWordMap": {
    "1,0,0,0,0,0,0": "[#start#]",
    "0,1,0,0,0,0,0": "a",
    "0,0,1,0,0,0,0": "↓",
    "0,0,0,1,0,0,0": "b",
    "0,0,0,0,1,0,0": "+",
    "0,0,0,0,0,1,0": "(",
    "0,0,0,0,0,0,1": ")"
  },
  "size": {
    "in": 7,
    "hidden": 7,
    "out": 7
  },
  "layers": {
    "Wix0": {
      "n": 7,
      "d": 7,
      "w": {
        "0": -7.562179629264967,
        "1": -1.418581404474757,
        "2": 5.654144443325916,
        "3": 6.64896277377371,
        "4": -3.17560064834431,
        "5": 10.948936847813421,
        "6": 10.642127981500472,
        "7": -2.176637534114421,
        "8": 1.9388966301981323,
        "9": 3.606123557633883,
        "10": 8.70174277914982,
        "11": 2.496080517485144,
        "12": 2.6878646620708793,
        "13": 1.5302642648179325,
        "14": -7.791411223919071,
        "15": -7.861588146031901,
        "16": -5.68180596229927,
        "17": -2.743577858880693,
        "18": -6.749310598381417,
        "19": 4.588718610838534,
        "20": -2.6068347378500065,
        "21": 4.276015019805563,
        "22": 4.017194735454484,
        "23": 6.434330394435432,
        "24": 2.0916138810252614,
        "25": 5.343984936358524,
        "26": -7.733892270647919,
        "27": -1.9978880690426717,
        "28": 17.059722275096814,
        "29": 9.798290977041116,
        "30": -2.3238832911689973,
        "31": -5.693717340174631,
        "32": 13.319717959134458,
        "33": 5.022846931163979,
        "34": 5.198992422973564,
        "35": 11.714300781069094,
        "36": 10.652392308213166,
        "37": 3.047365136457235,
        "38": 14.749343449799646,
        "39": -1.922180283884994,
        "40": -1.2671812050851485,
        "41": 3.588797352212814,
        "42": -2.2269685214074735,
        "43": 3.0894607748329443,
        "44": 2.964396110332772,
        "45": 0.07348627586786838,
        "46": 21.21973964363315,
        "47": -18.929024592728048,
        "48": -2.602137808193027
      }
    },
    "Wih0": {
      "n": 7,
      "d": 7,
      "w": {
        "0": 2.1852252800126677,
        "1": 8.607541471646492,
        "2": 3.8675485463748647,
        "3": 1.1483274047902317,
        "4": 0.23767753635058553,
        "5": 4.336356171175507,
        "6": 3.2575189309698223,
        "7": -2.7539913883419826,
        "8": 3.0439392578932924,
        "9": 1.5899892790527805,
        "10": 6.490224985840508,
        "11": 14.973616942061087,
        "12": 17.397275879056185,
        "13": -1.0371266095127007,
        "14": 4.9834248438625925,
        "15": 4.181514553966251,
        "16": -4.086413159117656,
        "17": -2.8900127470253905,
        "18": 4.102499382313636,
        "19": 2.4144286980638623,
        "20": -10.686556603481572,
        "21": -0.8899206260911638,
        "22": -15.710393123082717,
        "23": 6.054475674511031,
        "24": 0.6063642870043995,
        "25": -2.5674987656106154,
        "26": -4.562518514156377,
        "27": 2.5155568861209323,
        "28": 8.725208357295612,
        "29": 9.521145210216273,
        "30": -8.986700547107837,
        "31": 1.3695702188007015,
        "32": 11.92044073771692,
        "33": 5.765473356969608,
        "34": -1.3111170689759863,
        "35": -3.008965775749763,
        "36": 3.4100993139718256,
        "37": 0.008409087716384878,
        "38": 5.996592807206085,
        "39": 1.879895277662149,
        "40": -0.4455767270875738,
        "41": 3.928751145365033,
        "42": 12.058101104594263,
        "43": -6.5371622130551295,
        "44": -0.0619260112442751,
        "45": -1.0962323703401036,
        "46": -12.034191928288019,
        "47": -5.1862423039498555,
        "48": 2.898867604470478
      }
    },
    "bi0": {
      "n": 7,
      "d": 1,
      "w": {
        "0": -1.294112116191349,
        "1": 0.1792473120603375,
        "2": 5.865356246929692,
        "3": -2.461036238459185,
        "4": -7.404444249430304,
        "5": -3.3251917254921617,
        "6": -5.338130473296507
      }
    },
    "Wfx0": {
      "n": 7,
      "d": 7,
      "w": {
        "0": -0.05191774848189002,
        "1": -2.3629768626433454,
        "2": -1.0338502104956322,
        "3": -0.37477624709168517,
        "4": -2.922490462396677,
        "5": -2.2019443838261523,
        "6": -3.830671805377174,
        "7": 0.06738583207871973,
        "8": -3.877592520561027,
        "9": -6.853463430847465,
        "10": 7.493733558035204,
        "11": -2.6256306416797104,
        "12": 0.23497167677296577,
        "13": 8.378806282060978,
        "14": 0.021594428673104862,
        "15": -2.234595687937155,
        "16": -2.813794871081095,
        "17": -5.72584531246528,
        "18": -3.33584912479376,
        "19": -6.941055778169152,
        "20": 1.3241870174789592,
        "21": -0.04956700700155824,
        "22": -6.9289204246194815,
        "23": -16.849902969735567,
        "24": -3.223648727025169,
        "25": 5.241645031829706,
        "26": -5.130099669127142,
        "27": 8.0031093416697,
        "28": 0.07113859534297914,
        "29": 0.05468975956980626,
        "30": 8.5148546490383,
        "31": 3.7527261568847665,
        "32": -2.9849812351041414,
        "33": -3.5283971429584366,
        "34": 10.056295938751166,
        "35": 0.015446411476096194,
        "36": 14.911812216120802,
        "37": -14.259021413329414,
        "38": -17.360404750040345,
        "39": 11.760565595689162,
        "40": 4.470936854106859,
        "41": -1.2841266713512345,
        "42": 0.006331747369382473,
        "43": -11.076575164271498,
        "44": 15.507641968082812,
        "45": -5.8321760252882715,
        "46": -4.027187606332923,
        "47": -0.6288949528984574,
        "48": -3.374583630693251
      }
    },
    "Wfh0": {
      "n": 7,
      "d": 7,
      "w": {
        "0": -0.3350913012766465,
        "1": -8.051799693209489,
        "2": -0.2579375556251384,
        "3": -11.781028776502321,
        "4": -6.440989642414252,
        "5": 0.033027239447449674,
        "6": 0.9451669385402106,
        "7": -1.6733683193169355,
        "8": -1.1669529151169749,
        "9": 10.297297133734206,
        "10": 8.996805359245732,
        "11": -5.451777815601967,
        "12": -3.802736030075967,
        "13": 4.156531736847707,
        "14": -2.4432991535767647,
        "15": 0.6223998553619842,
        "16": 0.058841817650628625,
        "17": -3.016905938017281,
        "18": 2.5565677390185186,
        "19": 0.7394281092696855,
        "20": -1.59357177764693,
        "21": 5.330899309886702,
        "22": -1.8528134857837024,
        "23": -2.5914619344497813,
        "24": -7.5951187055201705,
        "25": -1.2660343461968178,
        "26": -11.211505793031707,
        "27": -5.373509129343794,
        "28": 3.3297780074044665,
        "29": 6.471078088087121,
        "30": 1.788236038207838,
        "31": -2.3948394728880946,
        "32": -14.311069077921479,
        "33": -5.589741056867226,
        "34": 0.3004400684138785,
        "35": -1.8706024157960959,
        "36": -2.181528947296047,
        "37": -2.8477809055750414,
        "38": -2.934367621944647,
        "39": 2.1350422205947446,
        "40": 9.324661557452176,
        "41": 2.0987888133628556,
        "42": 1.6692962640101536,
        "43": -0.22413803333495624,
        "44": -4.004880184881611,
        "45": -4.479358262866213,
        "46": 8.77395447765258,
        "47": -4.227907201132519,
        "48": 2.0775251021007746
      }
    },
    "bf0": {
      "n": 7,
      "d": 1,
      "w": {
        "0": -4.440978224514306,
        "1": -2.995648973609451,
        "2": 6.88502159847232,
        "3": 0.5481346102478397,
        "4": -5.823112764515674,
        "5": -0.09227255554746061,
        "6": -2.7823797568850592
      }
    },
    "Wox0": {
      "n": 7,
      "d": 7,
      "w": {
        "0": -3.984390889830398,
        "1": 11.508509831183883,
        "2": 7.448261682580796,
        "3": 12.673258494031748,
        "4": -5.798901665706116,
        "5": -1.3849175285187851,
        "6": -1.4030350492456292,
        "7": -9.284817052108576,
        "8": 2.5633291667935434,
        "9": 3.656063724876816,
        "10": 11.286039326619496,
        "11": -10.34658464694275,
        "12": -12.282943536264586,
        "13": 3.8188849038314436,
        "14": 0.22466505542287707,
        "15": 2.1201152019613003,
        "16": 11.869433948746309,
        "17": -2.992440917581858,
        "18": -6.29437691498579,
        "19": 7.390675264397914,
        "20": 6.759386712012985,
        "21": 0.5898155784075767,
        "22": 15.763279186278151,
        "23": 2.6321450371210675,
        "24": 7.645696406378126,
        "25": 1.368153443361833,
        "26": 3.334219624574365,
        "27": 4.508140434377509,
        "28": 12.59615761496616,
        "29": 8.387413870084684,
        "30": 1.9478386564949335,
        "31": 5.186692473527743,
        "32": -3.8424328322398673,
        "33": -1.9004135152700812,
        "34": 5.279001281103434,
        "35": 10.615268607135267,
        "36": 0.5453358340685176,
        "37": 2.627018318870698,
        "38": -10.747996182407514,
        "39": 6.092906455366786,
        "40": 1.7206949558044724,
        "41": 6.49001945512894,
        "42": -2.73292610577467,
        "43": 4.069877109600553,
        "44": 12.541827770200738,
        "45": -1.5112932620675898,
        "46": 15.430658634635279,
        "47": -8.118242499660886,
        "48": -4.871370057876102
      }
    },
    "Woh0": {
      "n": 7,
      "d": 7,
      "w": {
        "0": -3.536022215443077,
        "1": -6.86811448499735,
        "2": -1.358358315910241,
        "3": -1.0945754231543572,
        "4": 9.414144134971188,
        "5": 2.8622304621324792,
        "6": 11.444372767605337,
        "7": 2.4553657641266846,
        "8": -2.72728759008809,
        "9": -0.5462390375925715,
        "10": 1.978026753744298,
        "11": -0.9033441066799717,
        "12": 4.857754332698759,
        "13": -2.2744713539860104,
        "14": 3.210937312854271,
        "15": -1.5361950871747174,
        "16": 9.001224532794836,
        "17": -0.3151140871127541,
        "18": -0.11229117676779443,
        "19": 10.801252116747003,
        "20": 5.318075127811027,
        "21": 3.639515715934762,
        "22": -8.43770982371732,
        "23": 0.3734848364976629,
        "24": 10.405746064242091,
        "25": -0.9507062189318052,
        "26": -6.893280705536748,
        "27": -4.235117439052484,
        "28": -1.9534571412285149,
        "29": 18.47895949085878,
        "30": 3.4045249991299276,
        "31": -4.677757449342934,
        "32": -11.667836243604947,
        "33": 5.451424225844344,
        "34": 6.949246557619514,
        "35": -3.7854138583513137,
        "36": -14.656019901455418,
        "37": 5.028051254700362,
        "38": -1.8652655615912743,
        "39": 6.844222607202731,
        "40": 4.758145672641492,
        "41": -0.88695031110235,
        "42": -0.915425082025491,
        "43": 1.868889667766071,
        "44": -0.9524582762556983,
        "45": 0.8488573429565306,
        "46": -7.587543866252755,
        "47": 2.4006953934471826,
        "48": -5.356363297940728
      }
    },
    "bo0": {
      "n": 7,
      "d": 1,
      "w": {
        "0": 0.8840222896185377,
        "1": 0.40633422338413117,
        "2": -5.610011296271078,
        "3": -3.098178471707826,
        "4": -3.9173206797396363,
        "5": -1.2995466268874702,
        "6": -5.605163088034723
      }
    },
    "Wcx0": {
      "n": 7,
      "d": 7,
      "w": {
        "0": -0.5100950234514438,
        "1": -3.5000821352314517,
        "2": 8.166098482068678,
        "3": -1.6583060608598106,
        "4": -1.0839327816415558,
        "5": -0.4808760346323525,
        "6": -16.06297681062565,
        "7": -0.5623401592846218,
        "8": -5.01914913211135,
        "9": 15.293389093641734,
        "10": -8.228869137325244,
        "11": -3.1455964151913802,
        "12": -3.4177770889934487,
        "13": -6.250269998508681,
        "14": -0.22649041364261618,
        "15": -1.9362825893152662,
        "16": 11.727536659101183,
        "17": -7.552254529269651,
        "18": 6.4671456468026625,
        "19": 13.510753644383602,
        "20": -7.926799675910258,
        "21": -0.09758761825821084,
        "22": -7.9440921295498645,
        "23": 10.677980411173507,
        "24": -5.204054284557872,
        "25": 2.5613376406658293,
        "26": 3.240684350527707,
        "27": 2.564627883225938,
        "28": -6.102549883149197,
        "29": -3.370423188089239,
        "30": 0.06517013410988995,
        "31": -0.5361075121581527,
        "32": 7.519927317039469,
        "33": -6.130578255950583,
        "34": 6.5626367062267175,
        "35": -13.791084368236621,
        "36": 3.7818885204250385,
        "37": 3.8892734219940013,
        "38": -10.905800005440057,
        "39": -2.9626402815675723,
        "40": -1.3527950615609958,
        "41": -3.501649416612383,
        "42": 0.6680469359911807,
        "43": 1.6518906472378962,
        "44": -3.235606736267755,
        "45": 5.306749029971254,
        "46": 10.50794681555939,
        "47": 0.8220474091882877,
        "48": 0.8938495337329718
      }
    },
    "Wch0": {
      "n": 7,
      "d": 7,
      "w": {
        "0": -6.439604495066629,
        "1": -0.22844588084303208,
        "2": -7.205495007253454,
        "3": -3.7865973565699167,
        "4": 2.049207799429718,
        "5": 1.6279221830679842,
        "6": 11.53738902316602,
        "7": 1.8824437561123764,
        "8": -0.12980053615224002,
        "9": -3.9512433913543896,
        "10": 0.8079851180306094,
        "11": 5.8972941249090995,
        "12": -7.119143689649261,
        "13": 0.6868736508141711,
        "14": -1.3352037397174181,
        "15": -0.024894046952164184,
        "16": -2.3835980432875234,
        "17": 8.464783160390098,
        "18": -2.9366789650997305,
        "19": -5.816695908404327,
        "20": 0.8057112034874278,
        "21": 2.4541515395987226,
        "22": -11.289575702957555,
        "23": 0.4332323507699899,
        "24": -5.382761692336107,
        "25": -6.940973909202016,
        "26": -0.03770330297809518,
        "27": -1.4564806096350933,
        "28": 2.627379648710765,
        "29": -1.2964078802870327,
        "30": -4.254118962442296,
        "31": -0.18917362482136157,
        "32": 0.936603217650209,
        "33": -16.36466624410356,
        "34": -0.14533147292521098,
        "35": -2.3939657997972703,
        "36": 1.4671713704269636,
        "37": -5.822581299173162,
        "38": -1.9481365839875893,
        "39": -2.8146253682804496,
        "40": -0.48183406341143564,
        "41": 1.0242386920046846,
        "42": -4.7609157057999365,
        "43": 1.5641566575100079,
        "44": -0.8477571942520512,
        "45": -14.31954230171202,
        "46": -2.551739373860933,
        "47": -4.324850873759848,
        "48": 9.212282324430307
      }
    },
    "bc0": {
      "n": 7,
      "d": 1,
      "w": {
        "0": 1.4805644138296052,
        "1": -3.3395607213839997,
        "2": -1.337567345662673,
        "3": -5.406379611020668,
        "4": -0.8885334356421994,
        "5": 8.274981122659737,
        "6": -6.440406003878639
      }
    },
    "Whd": {
      "n": 7,
      "d": 7,
      "w": {
        "0": 0.5235567025668925,
        "1": 1.7124969934373344,
        "2": 0.6714994421891629,
        "3": -2.825143899153228,
        "4": -1.2811674626092842,
        "5": -1.8591793152863783,
        "6": -0.1498576814314057,
        "7": -3.8637219115465604,
        "8": 21.909007629734795,
        "9": 9.327818658965077,
        "10": 5.950784434403728,
        "11": -1.345047151298266,
        "12": -9.119776391287498,
        "13": -4.341070873795049,
        "14": -1.9708073345221462,
        "15": -9.046998123913431,
        "16": -9.815726381448144,
        "17": -15.662658133377777,
        "18": -0.2990069337101437,
        "19": 2.6633656102892846,
        "20": -8.67467454655,
        "21": -1.951331682862997,
        "22": 9.206459283917404,
        "23": 8.031048872327718,
        "24": -3.8069544921151692,
        "25": 2.193466609423936,
        "26": 2.880350218898653,
        "27": 2.14300472063449,
        "28": -10.465151287344899,
        "29": -12.329019003789812,
        "30": -3.6972320473765734,
        "31": -13.844120056015216,
        "32": -1.7451642234294442,
        "33": 4.678311160877508,
        "34": -16.042197562692127,
        "35": 1.8900741956156715,
        "36": 13.12727015154932,
        "37": 3.465612604739098,
        "38": 5.223707712112774,
        "39": 13.975370199838839,
        "40": 4.826457706950819,
        "41": -1.244535002999389,
        "42": 1.8854099055719646,
        "43": -6.5741035345513135,
        "44": -5.003169444393793,
        "45": -19.34322167854198,
        "46": 10.772319356249714,
        "47": -1.9486861749375546,
        "48": -10.966104302701325
      }
    },
    "bd": {
      "n": 7,
      "d": 1,
      "w": {
        "0": -8.768469238961348,
        "1": 5.965235188867421,
        "2": 7.404840337516714,
        "3": 4.657672576647982,
        "4": 3.7070119563629107,
        "5": 6.4096684076648645,
        "6": 7.880866295392642
      }
    }
  }
}