{
  "mode": "char",
  "startWord": "[#start#]",
  "words": [
    "[#start#]",
    "a",
    "↓",
    "b",
    "+",
    "(",
    ")"
  ],
  "wordVecMap": {
    "[#start#]": [
      1,
      0,
      0,
      0,
      0,
      0,
      0
    ],
    "a": [
      0,
      1,
      0,
      0,
      0,
      0,
      0
    ],
    "↓": [
      0,
      0,
      1,
      0,
      0,
      0,
      0
    ],
    "b": [
      0,
      0,
      0,
      1,
      0,
      0,
      0
    ],
    "+": [
      0,
      0,
      0,
      0,
      1,
      0,
      0
    ],
    "(": [
      0,
      0,
      0,
      0,
      0,
      1,
      0
    ],
    ")": [
      0,
      0,
      0,
      0,
      0,
      0,
      1
    ]
  },
  "vecWordMap": {
    "1,0,0,0,0,0,0": "[#start#]",
    "0,1,0,0,0,0,0": "a",
    "0,0,1,0,0,0,0": "↓",
    "0,0,0,1,0,0,0": "b",
    "0,0,0,0,1,0,0": "+",
    "0,0,0,0,0,1,0": "(",
    "0,0,0,0,0,0,1": ")"
  },
  "size": {
    "in": 7,
    "hidden": 7,
    "out": 7
  },
  "layers": {
    "Wix0": {
      "n": 7,
      "d": 7,
      "w": {
        "0": 4.974510987481488,
        "1": -9.675543928201767,
        "2": 8.138069438388586,
        "3": 10.080526497652935,
        "4": -7.7885117554047705,
        "5": 0.07477371782981024,
        "6": 6.424813029252694,
        "7": 4.350777494380326,
        "8": 4.765825553620896,
        "9": 7.914735879286446,
        "10": 3.3503677548932083,
        "11": -1.827507871350811,
        "12": -2.3250721162951544,
        "13": -3.4369263028046264,
        "14": 8.79599020863731,
        "15": -5.495470694283966,
        "16": 2.421899496980057,
        "17": 1.8659261397569091,
        "18": 9.166891698369005,
        "19": -3.7134863514865746,
        "20": 2.3025142031955856,
        "21": 5.5099323168119225,
        "22": -3.477185572396877,
        "23": 4.732594663229668,
        "24": 2.6009405001156654,
        "25": -4.030263026857097,
        "26": 8.20473440447939,
        "27": 2.043595552450884,
        "28": -5.715461512479326,
        "29": 2.1563004762156446,
        "30": 1.2876318062535954,
        "31": -2.110112025705367,
        "32": 3.9056578039037446,
        "33": -1.4693871335233684,
        "34": -3.3428051286327998,
        "35": -5.0156520706164835,
        "36": -1.4032107654105872,
        "37": -2.229403715275407,
        "38": 1.85637077153335,
        "39": 0.5331048674163128,
        "40": 3.6015840018465006,
        "41": 1.2334791430895686,
        "42": 3.0411613426097484,
        "43": 3.9210433327645178,
        "44": 9.602218212613067,
        "45": -4.242928712543628,
        "46": 0.053062870225626856,
        "47": -6.183153914395053,
        "48": -3.553236823232732
      }
    },
    "Wih0": {
      "n": 7,
      "d": 7,
      "w": {
        "0": 0.9909021917040024,
        "1": 4.5047186243433845,
        "2": 1.8136932240931314,
        "3": -1.0649965802126926,
        "4": 4.200358352890094,
        "5": 0.3897599565891011,
        "6": -0.11803377927721181,
        "7": -6.764352543225749,
        "8": 13.390767589675443,
        "9": -0.4187415533556914,
        "10": -6.632651860149677,
        "11": 2.469035213883445,
        "12": 0.09512570463941654,
        "13": -1.5768511424454503,
        "14": -0.45757194708952353,
        "15": 5.716489849229242,
        "16": -0.19771682144637784,
        "17": -0.7911562551659354,
        "18": -4.706303589999047,
        "19": 3.680127703119109,
        "20": 2.234229176566294,
        "21": -5.447257147523657,
        "22": 0.9057491846654342,
        "23": 4.00166626982502,
        "24": 4.094188113888858,
        "25": 2.7501111615447424,
        "26": -5.7477836620302245,
        "27": -2.308493574698816,
        "28": 0.2634910321076782,
        "29": -8.218196264062342,
        "30": 4.251270193602055,
        "31": -0.08945107494102639,
        "32": -1.4837471368248751,
        "33": -0.9132866237542542,
        "34": 0.6431342558224877,
        "35": 8.355472043907016,
        "36": -1.4405518589556598,
        "37": -3.0857266332631665,
        "38": 1.268864615329337,
        "39": -6.890908096262958,
        "40": -1.1230015792307446,
        "41": 5.940325788294996,
        "42": -5.782498217302352,
        "43": 4.474456621281854,
        "44": 2.1982312684295975,
        "45": 2.7792114992294406,
        "46": -6.186718232432737,
        "47": -4.1711121893023835,
        "48": -0.9506196361737257
      }
    },
    "bi0": {
      "n": 7,
      "d": 1,
      "w": {
        "0": -0.7789982591323578,
        "1": -0.17674687578154802,
        "2": 3.464974182978666,
        "3": -1.0530602887605793,
        "4": 0.2215094650575462,
        "5": 2.519927116129029,
        "6": 3.1822395483586736
      }
    },
    "Wfx0": {
      "n": 7,
      "d": 7,
      "w": {
        "0": 0.04020714685625533,
        "1": 5.829866704442885,
        "2": -8.123559802385058,
        "3": -10.924435408417255,
        "4": 3.835917281163714,
        "5": -0.5977680310558626,
        "6": 0.20657759702482115,
        "7": 0.0006830133521261458,
        "8": -6.590140693031476,
        "9": -3.9694080015947866,
        "10": 7.074962316418224,
        "11": -13.989054124204753,
        "12": -2.0038360321534467,
        "13": -1.8753785431748962,
        "14": 0.05658016452965745,
        "15": 12.871548494483164,
        "16": 6.612811799963128,
        "17": -0.1826422374457769,
        "18": -3.955496219298665,
        "19": 8.931697345913065,
        "20": -2.779441936469603,
        "21": 0.05652391981494505,
        "22": 7.2342096822145345,
        "23": -9.261841730554233,
        "24": -1.1414697958980817,
        "25": 2.487426131219389,
        "26": 8.60625129639888,
        "27": -0.7019586420111747,
        "28": -0.0684457650831584,
        "29": 4.185912103189222,
        "30": -3.3794879870697865,
        "31": -0.04333289380665167,
        "32": -0.745163538016272,
        "33": -3.7460329660505205,
        "34": -1.2627848256281755,
        "35": -0.07060477126249372,
        "36": -4.431862172428438,
        "37": -0.013307848368777877,
        "38": -5.132790959861393,
        "39": -0.49168991425589176,
        "40": 8.922442400856495,
        "41": -5.237022385753374,
        "42": -0.027960011387670906,
        "43": -0.8539103398921181,
        "44": 3.9930216628551327,
        "45": -2.2476623240702898,
        "46": -5.350669724457713,
        "47": 4.594145476569908,
        "48": 7.846957128112949
      }
    },
    "Wfh0": {
      "n": 7,
      "d": 7,
      "w": {
        "0": -2.968001530441791,
        "1": 1.3118830274086406,
        "2": 0.09445563796087521,
        "3": -3.7000673623602833,
        "4": -4.053366028541999,
        "5": -3.4468246518061525,
        "6": -8.425397575791125,
        "7": -2.4738617666071123,
        "8": 0.5329859938584874,
        "9": 2.583318704940051,
        "10": -3.5591992309775256,
        "11": 6.781752226257048,
        "12": 1.4580451373699863,
        "13": 2.385425972812957,
        "14": 2.4695428716340233,
        "15": -8.92062995681924,
        "16": 1.4602478532450172,
        "17": -8.444424562933168,
        "18": 9.250894983919087,
        "19": -4.280434942306229,
        "20": -4.597246773249165,
        "21": 0.47120691428869416,
        "22": 2.5845882450029376,
        "23": 4.3259280694841,
        "24": -2.2817402745415847,
        "25": 10.011859544412085,
        "26": 1.956403258761743,
        "27": 0.7074750485247463,
        "28": -1.5019342555022064,
        "29": 5.004279460537684,
        "30": 1.4660210680530958,
        "31": -0.26750418824702343,
        "32": 0.35001027730686235,
        "33": -3.478036365856827,
        "34": -5.094048978817407,
        "35": 0.912961563434046,
        "36": -0.6681180274055973,
        "37": 6.764465020609014,
        "38": -1.7776869566340692,
        "39": 1.1831372636733266,
        "40": 2.713046707090388,
        "41": 1.9028187441938287,
        "42": 3.4915869958190493,
        "43": -3.8297998798736916,
        "44": 3.869019745850464,
        "45": -2.3386465778486754,
        "46": -1.643749220236461,
        "47": -4.669979592555651,
        "48": 0.37537200789889685
      }
    },
    "bf0": {
      "n": 7,
      "d": 1,
      "w": {
        "0": 2.0687656500941594,
        "1": -1.1570566910296092,
        "2": -1.4246963023050931,
        "3": 2.2567903697318834,
        "4": -3.8680610892211718,
        "5": -0.8670252437744748,
        "6": -3.495208437639946
      }
    },
    "Wox0": {
      "n": 7,
      "d": 7,
      "w": {
        "0": 3.3476756347341303,
        "1": 3.2224176044599346,
        "2": 0.6784631832150295,
        "3": -0.751719861263283,
        "4": 1.408085928746656,
        "5": -12.23955689323491,
        "6": -2.911388828811935,
        "7": 2.8638224521413274,
        "8": 0.11335236192208578,
        "9": 0.9917902703980551,
        "10": 5.22988684048757,
        "11": 4.813200438298671,
        "12": 5.606699818244552,
        "13": -4.119786035811529,
        "14": 4.24871768824138,
        "15": 7.009944516929013,
        "16": 1.472813887493026,
        "17": 3.7371436303394057,
        "18": 1.8816568203835364,
        "19": -2.4552586113561965,
        "20": 2.8314383961804572,
        "21": 1.0184826195523433,
        "22": -5.298917911555867,
        "23": 1.550218731326769,
        "24": 2.1713674619172783,
        "25": -1.6232220387814147,
        "26": 2.11974194499892,
        "27": -0.17598920905777615,
        "28": -3.568420822912305,
        "29": 2.974582755968787,
        "30": -0.17775924956352812,
        "31": 0.8246432610022301,
        "32": 0.6913069740133568,
        "33": -4.701988557064226,
        "34": 4.281631965702603,
        "35": -5.167965743923858,
        "36": -1.569076081482515,
        "37": -2.051129957614542,
        "38": -2.307118036653442,
        "39": 2.031559800506728,
        "40": 7.82497356349279,
        "41": 3.485932696245335,
        "42": 3.5046381229017416,
        "43": 7.509925676983482,
        "44": 10.629612288507237,
        "45": 3.702213564447299,
        "46": 7.0962750888452275,
        "47": -3.2300877614469976,
        "48": -0.8052996433407505
      }
    },
    "Woh0": {
      "n": 7,
      "d": 7,
      "w": {
        "0": 5.16055588125386,
        "1": 2.732892830725962,
        "2": 5.133926124539486,
        "3": -1.5398533629615652,
        "4": 7.571263421911394,
        "5": -4.3558223731694525,
        "6": -4.422057375650338,
        "7": 1.086205484733216,
        "8": 7.807694857745454,
        "9": -0.51867503285009,
        "10": -3.9385622557313082,
        "11": 2.4942336298204246,
        "12": -7.458846956680723,
        "13": -3.1683779826156298,
        "14": 5.311590913910502,
        "15": -6.949080345643966,
        "16": -0.9764497050047101,
        "17": 1.6399873205498867,
        "18": -0.18304602689213234,
        "19": 6.285415817897264,
        "20": -3.57782232279489,
        "21": -6.125126430888356,
        "22": 2.125165965160743,
        "23": 0.2755949117534885,
        "24": 5.969264549062073,
        "25": 3.9139366420441517,
        "26": 4.455251236432416,
        "27": 0.6819040174248485,
        "28": 4.87688942089347,
        "29": -6.031272109547518,
        "30": 5.391962378782151,
        "31": -0.6455193738564188,
        "32": -3.6369702475170884,
        "33": -3.120842643107634,
        "34": 1.1730178679876337,
        "35": 1.2242454914320169,
        "36": -1.064818136942878,
        "37": -2.4846767811537123,
        "38": 6.676499394265335,
        "39": -2.098070386876302,
        "40": 3.4892460820906623,
        "41": 0.47240519598296327,
        "42": 3.9333412480471805,
        "43": -2.563150202594521,
        "44": 2.8462894384727826,
        "45": -4.007017024451295,
        "46": 1.2766169038499353,
        "47": -3.4633988328518415,
        "48": 0.011183232309369157
      }
    },
    "bo0": {
      "n": 7,
      "d": 1,
      "w": {
        "0": 3.7460651253526183,
        "1": 0.07236370332366729,
        "2": 0.13525335241680236,
        "3": 1.3542803605633693,
        "4": -0.5548333444772408,
        "5": 4.571675393875558,
        "6": 4.660020176142976
      }
    },
    "Wcx0": {
      "n": 7,
      "d": 7,
      "w": {
        "0": -1.928240245352497,
        "1": 4.5252102138632235,
        "2": 3.2593651341979375,
        "3": -10.700301716630383,
        "4": -2.7996216367728235,
        "5": 1.984535676943351,
        "6": 3.149547448089571,
        "7": -6.360434251948805,
        "8": 5.283277753846561,
        "9": -2.873789999152701,
        "10": 1.390432941855476,
        "11": -6.536383710827269,
        "12": -2.682379798683574,
        "13": 1.4268004682100504,
        "14": 5.293059522153554,
        "15": 4.7701676780441975,
        "16": 2.3466695307102166,
        "17": 0.045966244027267025,
        "18": -8.214851373158714,
        "19": -1.2985827911494296,
        "20": 1.0578666141703028,
        "21": 3.881749856646491,
        "22": 0.2664022197677048,
        "23": -1.9544531392487694,
        "24": 2.516275101559766,
        "25": -5.457116143759443,
        "26": -5.479175415254935,
        "27": 5.9109660149279675,
        "28": -0.9197376699155504,
        "29": -4.48489695753137,
        "30": 2.00767529719892,
        "31": -0.9039323214754346,
        "32": 3.0691669272258206,
        "33": -6.1256709893085795,
        "34": -3.5257658652142183,
        "35": 0.3035459241019272,
        "36": -0.7568971568403356,
        "37": -6.37002243009753,
        "38": -6.453904945366593,
        "39": 2.8237728605800436,
        "40": 9.10102573883166,
        "41": -3.7778751103902164,
        "42": -5.077010241037518,
        "43": 4.732152729039747,
        "44": -12.154364328288944,
        "45": 1.0098167625115768,
        "46": -4.590351285597636,
        "47": -3.4228008695054024,
        "48": 7.457807974286633
      }
    },
    "Wch0": {
      "n": 7,
      "d": 7,
      "w": {
        "0": -1.9518189357206304,
        "1": 0.6172366673062138,
        "2": -4.306488814826086,
        "3": 2.780894862275069,
        "4": -1.1602470665361946,
        "5": -1.6829781711910698,
        "6": -0.40852292771453913,
        "7": -0.25946411060360663,
        "8": -4.903382350024576,
        "9": -4.345322526291951,
        "10": -5.45436604266879,
        "11": 7.838396116370629,
        "12": 0.15796367519152105,
        "13": -6.880261229919898,
        "14": -1.3530418019526131,
        "15": 0.37267410727706857,
        "16": -7.445160841204073,
        "17": -2.702961336346657,
        "18": -4.53310154432751,
        "19": 1.2340357767320296,
        "20": -0.5015203529134753,
        "21": -8.193053759327563,
        "22": -2.04464105628845,
        "23": 1.903867167336577,
        "24": -1.954977415165107,
        "25": -0.48071951736154667,
        "26": 4.074516918609782,
        "27": 0.3611623628766592,
        "28": 1.7029333480495832,
        "29": -0.3097648726071314,
        "30": -0.771883838152445,
        "31": 3.305414175901106,
        "32": -2.868867717026387,
        "33": -2.3606893052269884,
        "34": 8.005725025786747,
        "35": 2.2024497515346537,
        "36": 0.697290933199751,
        "37": 11.172398123767032,
        "38": 3.7337796276488815,
        "39": 0.33100158541021113,
        "40": -2.1622438723150306,
        "41": -1.281074343906614,
        "42": 0.18519849641594494,
        "43": -4.153624935053829,
        "44": -4.465226960326707,
        "45": -0.48258495445306765,
        "46": -2.1882992002121417,
        "47": 2.785876861296809,
        "48": -4.475278899065072
      }
    },
    "bc0": {
      "n": 7,
      "d": 1,
      "w": {
        "0": 2.332583321251429,
        "1": 3.602647770044361,
        "2": 2.55577945012172,
        "3": 2.4577087689321844,
        "4": 2.106733687369785,
        "5": 3.551606932152059,
        "6": 1.6709014045595174
      }
    },
    "Whd": {
      "n": 7,
      "d": 7,
      "w": {
        "0": 2.105426518212021,
        "1": -1.4691228323985221,
        "2": -1.914667712175784,
        "3": -0.40472261839025747,
        "4": 1.9196966657755192,
        "5": -1.5665671075966057,
        "6": 0.7710075415434522,
        "7": -0.7612180833049964,
        "8": -2.3268498579203323,
        "9": 3.6614108829260696,
        "10": -1.7232793725585485,
        "11": -0.19864405974569915,
        "12": 0.7041153390006727,
        "13": -6.021432630822254,
        "14": -3.2549520234152824,
        "15": 1.3300308506660057,
        "16": 1.988520881400829,
        "17": 5.655313358772332,
        "18": -1.4024581738979889,
        "19": -1.5956015277909952,
        "20": 4.293404176534352,
        "21": 2.8997312772556993,
        "22": 6.264777566287453,
        "23": -0.06181639929471805,
        "24": -0.4931884253275528,
        "25": 5.7266741660133365,
        "26": 4.503159150759476,
        "27": -2.599322299841332,
        "28": 5.026859685100939,
        "29": 9.4962697805704,
        "30": 5.649808856296852,
        "31": -2.6345227657421746,
        "32": 1.2505348722316652,
        "33": -1.1764814377963178,
        "34": 10.684555789521815,
        "35": 5.672025762502766,
        "36": -3.988846646633809,
        "37": 1.1355806745493373,
        "38": -3.8704658958483806,
        "39": 3.970916140138365,
        "40": 1.2651105583922801,
        "41": -4.128906468392045,
        "42": -5.5334093695526185,
        "43": 4.346678361881108,
        "44": -2.485716843460712,
        "45": -2.349025078145545,
        "46": -2.3651564233647457,
        "47": -3.9000479623968474,
        "48": 3.1669476072327605
      }
    },
    "bd": {
      "n": 7,
      "d": 1,
      "w": {
        "0": -8.616242689486457,
        "1": 1.7523341219579902,
        "2": -0.016483539195067565,
        "3": 0.15249790083052184,
        "4": -0.4872915049384702,
        "5": -0.22996517758970703,
        "6": 0.9058035293036504
      }
    }
  }
}